{"learner":{"attributes":{},"feature_names":["Destination Port","Flow Duration","Total Fwd Packets","Total Backward Packets","Total Length of Fwd Packets","Total Length of Bwd Packets","Fwd Packet Length Mean","Fwd Packet Length Std","Bwd Packet Length Mean","Bwd Packet Length Std","Flow Bytes/s","Flow Packets/s","Flow IAT Mean","Flow IAT Std","Fwd IAT Mean","Bwd IAT Mean","FIN Flag Count","SYN Flag Count","RST Flag Count","PSH Flag Count","ACK Flag Count","URG Flag Count","Fwd Header Length","Bwd Header Length","Fwd Packets/s","Bwd Packets/s","Min Packet Length","Max Packet Length","Packet Length Mean","Packet Length Std","Average Packet Size","Avg Fwd Segment Size","Avg Bwd Segment Size","Init_Win_bytes_forward","Init_Win_bytes_backward","Active Mean","Idle Mean"],"feature_types":["float","float","float","float","float","float","float","float","float","float","float","float","float","float","float","float","float","float","float","float","float","float","float","float","float","float","float","float","float","float","float","float","float","float","float","float","float"],"gradient_booster":{"model":{"cats":{"enc":[],"feature_segments":[],"sorted_idx":[]},"gbtree_model_param":{"num_parallel_tree":"1","num_trees":"600"},"iteration_indptr":[0,6,12,18,24,30,36,42,48,54,60,66,72,78,84,90,96,102,108,114,120,126,132,138,144,150,156,162,168,174,180,186,192,198,204,210,216,222,228,234,240,246,252,258,264,270,276,282,288,294,300,306,312,318,324,330,336,342,348,354,360,366,372,378,384,390,396,402,408,414,420,426,432,438,444,450,456,462,468,474,480,486,492,498,504,510,516,522,528,534,540,546,552,558,564,570,576,582,588,594,600],"tree_info":[0,1,2,3,4,5,0,1,2,3,4,5,0,1,2,3,4,5,0,1,2,3,4,5,0,1,2,3,4,5,0,1,2,3,4,5,0,1,2,3,4,5,0,1,2,3,4,5,0,1,2,3,4,5,0,1,2,3,4,5,0,1,2,3,4,5,0,1,2,3,4,5,0,1,2,3,4,5,0,1,2,3,4,5,0,1,2,3,4,5,0,1,2,3,4,5,0,1,2,3,4,5,0,1,2,3,4,5,0,1,2,3,4,5,0,1,2,3,4,5,0,1,2,3,4,5,0,1,2,3,4,5,0,1,2,3,4,5,0,1,2,3,4,5,0,1,2,3,4,5,0,1,2,3,4,5,0,1,2,3,4,5,0,1,2,3,4,5,0,1,2,3,4,5,0,1,2,3,4,5,0,1,2,3,4,5,0,1,2,3,4,5,0,1,2,3,4,5,0,1,2,3,4,5,0,1,2,3,4,5,0,1,2,3,4,5,0,1,2,3,4,5,0,1,2,3,4,5,0,1,2,3,4,5,0,1,2,3,4,5,0,1,2,3,4,5,0,1,2,3,4,5,0,1,2,3,4,5,0,1,2,3,4,5,0,1,2,3,4,5,0,1,2,3,4,5,0,1,2,3,4,5,0,1,2,3,4,5,0,1,2,3,4,5,0,1,2,3,4,5,0,1,2,3,4,5,0,1,2,3,4,5,0,1,2,3,4,5,0,1,2,3,4,5,0,1,2,3,4,5,0,1,2,3,4,5,0,1,2,3,4,5,0,1,2,3,4,5,0,1,2,3,4,5,0,1,2,3,4,5,0,1,2,3,4,5,0,1,2,3,4,5,0,1,2,3,4,5,0,1,2,3,4,5,0,1,2,3,4,5,0,1,2,3,4,5,0,1,2,3,4,5,0,1,2,3,4,5,0,1,2,3,4,5,0,1,2,3,4,5,0,1,2,3,4,5,0,1,2,3,4,5,0,1,2,3,4,5,0,1,2,3,4,5,0,1,2,3,4,5,0,1,2,3,4,5,0,1,2,3,4,5,0,1,2,3,4,5,0,1,2,3,4,5,0,1,2,3,4,5,0,1,2,3,4,5,0,1,2,3,4,5,0,1,2,3,4,5,0,1,2,3,4,5,0,1,2,3,4,5,0,1,2,3,4,5,0,1,2,3,4,5,0,1,2,3,4,5,0,1,2,3,4,5,0,1,2,3,4,5,0,1,2,3,4,5,0,1,2,3,4,5,0,1,2,3,4,5,0,1,2,3,4,5,0,1,2,3,4,5,0,1,2,3,4,5,0,1,2,3,4,5,0,1,2,3,4,5,0,1,2,3,4,5,0,1,2,3,4,5],"trees":[{"base_weights":[-2.6425703E-8,2.4117646E0,-3.4072024E-1,1.8947369E-1,7.781955E-1,6.2068963E-1,-4.6883988E-1,3.3157894E-1,-5.1906157E-1,-1.7611045E-1,-2.0192309E-1,-4.4680852E-1,3.3157894E-1,-4.2857148E-2,-1.5734266E-1],"categories":[],"categories_nodes":[],"categories_segments":[],"categories_sizes":[],"default_left":[0,0,0,0,0,0,0,0,0,0,0,0,0,0,0],"id":0,"left_children":[1,3,5,-1,-1,-1,7,-1,9,-1,11,13,-1,-1,-1],"loss_changes":[5.6425938E1,1.1189728E0,1.9545153E1,0E0,0E0,0E0,5.1544466E0,0E0,1.106617E0,0E0,4.1928997E0,1.7163706E-1,0E0,0E0,0E0],"parents":[2147483647,0,0,1,1,2,2,6,6,8,8,10,10,11,11],"right_children":[2,4,6,-1,-1,-1,8,-1,10,-1,12,14,-1,-1,-1],"split_conditions":[-4.6016672E-1,-5.213815E-1,-6.326561E-1,1.8947369E-1,7.781955E-1,6.2068963E-1,-5.891006E-1,3.3157894E-1,1.1474792E0,-1.7611045E-1,-5.7269984E-1,-3.2939604E-1,3.3157894E-1,-4.2857148E-2,-1.5734266E-1],"split_indices":[1,0,22,0,0,0,28,0,26,0,30,33,0,0,0],"split_type":[0,0,0,0,0,0,0,0,0,0,0,0,0,0,0],"sum_hessian":[6.666667E1,7.5000005E0,5.9166668E1,1.1111112E0,6.3888893E0,2.2222223E0,5.6944447E1,1.1111112E0,5.5833336E1,4.527778E1,1.0555556E1,9.444445E0,1.1111112E0,2.5E0,6.9444447E0],"tree_param":{"num_deleted":"0","num_feature":"37","num_nodes":"15","size_leaf_vector":"1"}},{"base_weights":[-2.6425703E-8,-3.584559E-1,7.905405E-1,1.6271186E0,-1.7672065E-1,7.1590906E-1,-1.12500004E-1],"categories":[],"categories_nodes":[],"categories_segments":[],"categories_sizes":[],"default_left":[0,0,0,0,0,0,0],"id":1,"left_children":[1,3,-1,5,-1,-1,-1],"loss_changes":[6.486114E1,2.8635944E1,0E0,1.0859974E1,0E0,0E0,0E0],"parents":[2147483647,0,0,1,1,3,3],"right_children":[2,4,-1,6,-1,-1,-1],"split_conditions":[1.7434291E0,-2.4729112E-1,7.905405E-1,-5.2330464E-1,-1.7672065E-1,7.1590906E-1,-1.12500004E-1],"split_indices":[28,10,0,0,0,0,0],"split_type":[0,0,0,0,0,0,0],"sum_hessian":[6.666667E1,5.9444447E1,7.2222223E0,5.555556E0,5.3888893E1,3.888889E0,1.6666667E0],"tree_param":{"num_deleted":"0","num_feature":"37","num_nodes":"7","size_leaf_vector":"1"}},{"base_weights":[-2.6425703E-8,-1.7681728E-1,8.2568806E-1],"categories":[],"categories_nodes":[],"categories_segments":[],"categories_sizes":[],"default_left":[0,0,0],"id":2,"left_children":[1,-1,-1],"loss_changes":[1.1138948E2,0E0,0E0],"parents":[2147483647,0,0],"right_children":[2,-1,-1],"split_conditions":[2.1964848E0,-1.7681728E-1,8.2568806E-1],"split_indices":[1,0,0],"split_type":[0,0,0],"sum_hessian":[6.666667E1,5.5555557E1,1.1111112E1],"tree_param":{"num_deleted":"0","num_feature":"37","num_nodes":"3","size_leaf_vector":"1"}},{"base_weights":[-2.6425703E-8,2.346774E0,-1.7672065E-1,-1.12500004E-1,8.2568806E-1],"categories":[],"categories_nodes":[],"categories_segments":[],"categories_sizes":[],"default_left":[0,0,0,0,0],"id":3,"left_children":[1,3,-1,-1,-1],"loss_changes":[9.492558E1,1.623909E1,0E0,0E0,0E0],"parents":[2147483647,0,0,1,1],"right_children":[2,4,-1,-1,-1],"split_conditions":[-5.876248E-1,-4.4639796E-1,-1.7672065E-1,-1.12500004E-1,8.2568806E-1],"split_indices":[28,4,0,0,0],"split_type":[0,0,0,0,0],"sum_hessian":[6.666667E1,1.2777779E1,5.3888893E1,1.6666667E0,1.1111112E1],"tree_param":{"num_deleted":"0","num_feature":"37","num_nodes":"5","size_leaf_vector":"1"}},{"base_weights":[-2.6425703E-8,-4.883721E-1,1.3243243E0,-5.673839E-1,4.7368422E-1,2.0270267E-1,2.0246303E0,-1.7620164E-1,-5.029142E-9,8.3132523E-1,-1.4096385E-1,-1.1886793E-1,7.714285E-1,4.3448275E-1,-1.0465116E-1],"categories":[],"categories_nodes":[],"categories_segments":[],"categories_sizes":[],"default_left":[0,0,0,0,0,0,0,0,0,0,0,0,0,0,0],"id":4,"left_children":[1,3,5,7,-1,9,11,-1,-1,13,-1,-1,-1,-1,-1],"loss_changes":[4.441106E1,9.090226E0,1.4120953E1,5.554123E-1,0E0,3.8669815E0,1.5947491E1,0E0,0E0,3.862571E0,0E0,0E0,0E0,0E0,0E0],"parents":[2147483647,0,0,1,1,2,2,3,3,5,5,6,6,9,9],"right_children":[2,4,6,8,-1,10,12,-1,-1,14,-1,-1,-1,-1,-1],"split_conditions":[3.410912E-1,2.509928E0,-6.0343945E-1,-7.735201E-2,4.7368422E-1,-4.1624728E-1,-6.028617E-1,-1.7620164E-1,-5.029142E-9,-4.6016186E-1,-1.4096385E-1,-1.1886793E-1,7.714285E-1,4.3448275E-1,-1.0465116E-1],"split_indices":[25,0,8,34,0,4,32,0,0,1,0,0,0,0,0],"split_type":[0,0,0,0,0,0,0,0,0,0,0,0,0,0,0],"sum_hessian":[6.666667E1,4.9166668E1,1.75E1,4.8055557E1,1.1111112E0,7.2222223E0,1.0277779E1,4.638889E1,1.6666667E0,3.6111112E0,3.6111112E0,1.9444445E0,8.333334E0,2.2222223E0,1.388889E0],"tree_param":{"num_deleted":"0","num_feature":"37","num_nodes":"15","size_leaf_vector":"1"}},{"base_weights":[-2.6425703E-8,-5.253456E-1,1.2391304E0,2.0689653E-1,-1.6956522E-1,2.244755E0,5.555555E-1,-9.4736844E-2,1.8947369E-1,7.5663716E-1,2.25E-1,6.2068963E-1,7.3891595E-2,-3.8345864E-1,7.4999994E-1,4.736842E-2,-1.5132743E-1,4.924528E-1,-1.1886793E-1],"categories":[],"categories_nodes":[],"categories_segments":[],"categories_sizes":[],"default_left":[0,0,0,0,0,0,0,0,0,0,0,0,0,0,0,0,0,0,0],"id":5,"left_children":[1,3,5,7,-1,9,11,-1,-1,-1,-1,-1,13,15,17,-1,-1,-1,-1],"loss_changes":[4.4700058E1,1.524827E0,1.2806835E1,9.147005E-1,0E0,1.4021568E0,9.688012E0,0E0,0E0,0E0,0E0,0E0,3.7748895E0,5.6351066E-1,5.6462264E0,0E0,0E0,0E0,0E0],"parents":[2147483647,0,0,1,1,2,2,3,3,5,5,6,6,12,12,13,13,14,14],"right_children":[2,4,6,8,-1,10,12,-1,-1,-1,-1,-1,14,16,18,-1,-1,-1,-1],"split_conditions":[-4.635829E-1,-5.63853E-1,-2.317257E-1,-5.113077E-1,-1.6956522E-1,-3.181587E-1,-2.507503E-1,-9.4736844E-2,1.8947369E-1,7.5663716E-1,2.25E-1,6.2068963E-1,-4.4619992E-1,-4.6016386E-1,-6.030761E-1,4.736842E-2,-1.5132743E-1,4.924528E-1,-1.1886793E-1],"split_indices":[0,27,24,0,0,2,11,0,0,0,0,0,22,1,8,0,0,0,0],"split_type":[0,0,0,0,0,0,0,0,0,0,0,0,0,0,0,0,0,0,0],"sum_hessian":[6.666667E1,4.7222225E1,1.9444445E1,2.2222223E0,4.5000004E1,6.9444447E0,1.2500001E1,1.1111112E0,1.1111112E0,5.277778E0,1.6666667E0,2.2222223E0,1.0277779E1,6.3888893E0,3.888889E0,1.1111112E0,5.277778E0,1.9444445E0,1.9444445E0],"tree_param":{"num_deleted":"0","num_feature":"37","num_nodes":"19","size_leaf_vector":"1"}},{"base_weights":[1.1472833E-2,1.3010148E0,-2.959824E-1,4.1533396E-1,1.6606091E-1,3.7751016E-1,-4.2844388E-1,3.3480367E-1,-4.855492E-1,-1.6845314E-1,-1.6778286E-1,-4.209972E-1,3.1830907E-1,-3.4036357E-2,-1.5107828E-1],"categories":[],"categories_nodes":[],"categories_segments":[],"categories_sizes":[],"default_left":[0,0,0,0,0,0,0,0,0,0,0,0,0,0,0],"id":6,"left_children":[1,3,5,-1,-1,-1,7,-1,9,-1,11,13,-1,-1,-1],"loss_changes":[2.5938837E1,1.9046783E-2,1.1422239E1,0E0,0E0,0E0,4.9035234E0,0E0,1.0737524E0,0E0,3.7951279E0,1.8770742E-1,0E0,0E0,0E0],"parents":[2147483647,0,0,1,1,2,2,6,6,8,8,10,10,11,11],"right_children":[2,4,6,-1,-1,-1,8,-1,10,-1,12,14,-1,-1,-1],"split_conditions":[-4.6016672E-1,-1.2654592E-1,-6.326561E-1,4.1533396E-1,1.6606091E-1,3.7751016E-1,-4.4639796E-1,3.3480367E-1,1.1474792E0,-1.6845314E-1,-2.7051884E-1,-3.2939604E-1,3.1830907E-1,-3.4036357E-2,-1.5107828E-1],"split_indices":[1,33,22,0,0,0,4,0,26,0,4,33,0,0,0],"split_type":[0,0,0,0,0,0,0,0,0,0,0,0,0,0,0],"sum_hessian":[6.345216E1,1.159372E1,5.185844E1,9.663005E0,1.9307152E0,3.4048505E0,4.845359E1,1.0664921E0,4.7387096E1,3.7625713E1,9.761383E0,8.63866E0,1.1227232E0,2.3314197E0,6.3072405E0],"tree_param":{"num_deleted":"0","num_feature":"37","num_nodes":"15","size_leaf_vector":"1"}},{"base_weights":[-2.740446E-3,-3.2294768E-1,4.01374E-1,9.951314E-1,-1.6929594E-1,3.9477608E-1,-1.0361684E-1],"categories":[],"categories_nodes":[],"categories_segments":[],"categories_sizes":[],"default_left":[0,0,0,0,0,0,0],"id":7,"left_children":[1,3,-1,5,-1,-1,-1],"loss_changes":[2.8368172E1,1.752991E1,0E0,4.16004E0,0E0,0E0,0E0],"parents":[2147483647,0,0,1,1,3,3],"right_children":[2,4,-1,6,-1,-1,-1],"split_conditions":[1.7434291E0,-2.4729112E-1,4.01374E-1,-5.2330464E-1,-1.6929594E-1,3.9477608E-1,-1.0361684E-1],"split_indices":[28,10,0,0,0,0,0],"split_type":[0,0,0,0,0,0,0],"sum_hessian":[6.407556E1,5.233481E1,1.1740748E1,7.6170406E0,4.471777E1,6.161044E0,1.4559965E0],"tree_param":{"num_deleted":"0","num_feature":"37","num_nodes":"7","size_leaf_vector":"1"}},{"base_weights":[-1.2094535E-2,-1.6951336E-1,4.035959E-1],"categories":[],"categories_nodes":[],"categories_segments":[],"categories_sizes":[],"default_left":[0,0,0],"id":8,"left_children":[1,-1,-1],"loss_changes":[4.9927357E1,0E0,0E0],"parents":[2147483647,0,0],"right_children":[2,-1,-1],"split_conditions":[2.1964848E0,-1.6951336E-1,4.035959E-1],"split_indices":[1,0,0],"split_type":[0,0,0],"sum_hessian":[6.45054E1,4.6249256E1,1.825615E1],"tree_param":{"num_deleted":"0","num_feature":"37","num_nodes":"3","size_leaf_vector":"1"}},{"base_weights":[-1.2220625E-2,1.2160746E0,-1.6943781E-1,-1.0361684E-1,4.0572286E-1],"categories":[],"categories_nodes":[],"categories_segments":[],"categories_sizes":[],"default_left":[0,0,0,0,0],"id":9,"left_children":[1,3,-1,-1,-1],"loss_changes":[4.5196682E1,4.8663387E0,0E0,0E0,0E0],"parents":[2147483647,0,0,1,1],"right_children":[2,4,-1,-1,-1],"split_conditions":[-5.876248E-1,-4.4639796E-1,-1.6943781E-1,-1.0361684E-1,4.0572286E-1],"split_indices":[28,4,0,0,0],"split_type":[0,0,0,0,0],"sum_hessian":[6.457895E1,1.9665148E1,4.49138E1,1.4559965E0,1.8209152E1],"tree_param":{"num_deleted":"0","num_feature":"37","num_nodes":"5","size_leaf_vector":"1"}},{"base_weights":[2.474101E-3,-4.4991603E-1,8.171494E-1,-5.385486E-1,3.3844307E-1,4.697611E-2,1.1425551E0,-1.6850574E-1,5.1968493E-3,6.38133E-1,-1.4305949E-1,1.2726262E-1,1.3168576E0,2.841023E-1,5.176797E-3,1.9847295E-1,-1.0597762E-1,1.1225482E-1,4.2199683E-1],"categories":[],"categories_nodes":[],"categories_segments":[],"categories_sizes":[],"default_left":[0,0,0,0,0,0,0,0,0,0,0,0,0,0,0,0,0,0,0],"id":10,"left_children":[1,3,5,7,-1,9,11,-1,-1,13,-1,15,17,-1,-1,-1,-1,-1,-1],"loss_changes":[2.4350828E1,6.549859E0,5.8581867E0,5.357933E-1,0E0,2.7969255E0,2.75943E0,0E0,0E0,7.908926E-1,0E0,1.140144E0,6.5955734E-1,0E0,0E0,0E0,0E0,0E0,0E0],"parents":[2147483647,0,0,1,1,2,2,3,3,5,5,6,6,9,9,11,11,12,12],"right_children":[2,4,6,8,-1,10,12,-1,-1,14,-1,16,18,-1,-1,-1,-1,-1,-1],"split_conditions":[3.410912E-1,2.509928E0,-5.783851E-1,-7.735201E-2,3.3844307E-1,-5.850273E-1,-4.888296E-1,-1.6850574E-1,5.1968493E-3,1.6453333E0,-1.4305949E-1,-4.1624728E-1,-1.108647E-1,2.841023E-1,5.176797E-3,1.9847295E-1,-1.0597762E-1,1.1225482E-1,4.2199683E-1],"split_indices":[25,0,30,34,0,28,12,0,0,0,0,4,11,0,0,0,0,0,0],"split_type":[0,0,0,0,0,0,0,0,0,0,0,0,0,0,0,0,0,0,0],"sum_hessian":[6.407424E1,4.14852E1,2.2589043E1,3.9902763E1,1.5824337E0,7.049227E0,1.5539815E1,3.8298206E1,1.6045563E0,3.2093177E0,3.8399096E0,2.530435E0,1.3009379E1,1.7923723E0,1.4169455E0,1.0197448E0,1.5106902E0,1.5808675E0,1.1428513E1],"tree_param":{"num_deleted":"0","num_feature":"37","num_nodes":"19","size_leaf_vector":"1"}},{"base_weights":[1.3514616E-2,-4.9031693E-1,8.317737E-1,1.811666E-1,-5.353693E-1,1.2683829E0,3.3027682E-1,-8.985024E-2,1.5939295E-1,-3.2698163E-1,-1.6770247E-1,8.665283E-2,4.2245707E-1,1.0931419E0,-1.139891E-1,4.139647E-2,-1.3889556E-1,3.9718246E-1,4.1160297E-2,4.8730192E-1,-1.4850429E-1,2.6547018E-1,-9.339091E-2],"categories":[],"categories_nodes":[],"categories_segments":[],"categories_sizes":[],"default_left":[0,0,0,0,0,0,0,0,0,0,0,0,0,0,0,0,0,0,0,0,0,0,0],"id":11,"left_children":[1,3,5,7,9,11,13,-1,-1,15,-1,-1,-1,17,19,-1,-1,-1,-1,21,-1,-1,-1],"loss_changes":[2.6994846E1,1.323492E0,5.04348E0,7.139044E-1,5.619049E-3,1.3714161E0,4.5179253E0,0E0,0E0,4.626512E-1,0E0,0E0,0E0,8.917718E-1,2.3255615E0,0E0,0E0,0E0,0E0,1.5559745E0,0E0,0E0,0E0],"parents":[2147483647,0,0,1,1,2,2,3,3,4,4,5,5,6,6,9,9,13,13,14,14,19,19],"right_children":[2,4,6,8,10,12,14,-1,-1,16,-1,-1,-1,18,20,-1,-1,-1,-1,22,-1,-1,-1],"split_conditions":[-4.635829E-1,-5.63853E-1,-5.782028E-1,-4.6016574E-1,-4.8882797E-1,-5.187107E-1,-4.888296E-1,-8.985024E-2,1.5939295E-1,-3.2919133E-1,-1.6770247E-1,8.665283E-2,4.2245707E-1,-6.1505616E-1,-4.618761E-1,4.139647E-2,-1.3889556E-1,3.9718246E-1,4.1160297E-2,-1.6519468E-1,-1.4850429E-1,2.6547018E-1,-9.339091E-2],"split_indices":[0,27,30,1,12,22,12,0,0,33,0,0,0,5,14,0,0,0,0,10,0,0,0],"split_type":[0,0,0,0,0,0,0,0,0,0,0,0,0,0,0,0,0,0,0,0,0,0,0],"sum_hessian":[6.349015E1,3.9542927E1,2.3947222E1,2.2963078E0,3.724662E1,1.1984328E1,1.19628935E1,1.0287291E0,1.2675788E0,5.305822E0,3.1940798E1,1.8797967E0,1.0104531E1,3.8652225E0,8.0976715E0,1.1974338E0,4.108388E0,2.8034132E0,1.0618093E0,3.0327706E0,5.0649004E0,1.9525857E0,1.0801849E0],"tree_param":{"num_deleted":"0","num_feature":"37","num_nodes":"23","size_leaf_vector":"1"}},{"base_weights":[1.8825931E-2,6.198466E-1,-4.3782702E-1,3.2666525E-1,-1.4822967E-1,1.8832017E-2,-1.6243292E-1,-1.3491333E-1,6.842455E-1,3.2904968E-2,2.8014493E-1],"categories":[],"categories_nodes":[],"categories_segments":[],"categories_sizes":[],"default_left":[0,0,0,0,0,0,0,0,0,0,0],"id":12,"left_children":[1,3,5,-1,-1,7,-1,-1,9,-1,-1],"loss_changes":[1.6467375E1,1.4066139E1,1.6246047E0,0E0,0E0,2.5762646E0,0E0,0E0,3.8555765E-1,0E0,0E0],"parents":[2147483647,0,0,1,1,2,2,5,5,8,8],"right_children":[2,4,6,-1,-1,8,-1,-1,10,-1,-1],"split_conditions":[-4.6187696E-1,1.6236883E0,-1.3054675E-1,3.2666525E-1,-1.4822967E-1,-5.785919E-1,-1.6243292E-1,-1.3491333E-1,-4.6016318E-1,3.2904968E-2,2.8014493E-1],"split_indices":[14,19,34,0,0,30,0,0,1,0,0],"split_type":[0,0,0,0,0,0,0,0,0,0,0],"sum_hessian":[5.8010845E1,2.4892017E1,3.3118828E1,1.7532349E1,7.3596687E0,6.2762494E0,2.6842579E1,3.8731673E0,2.403082E0,1.1636388E0,1.2394431E0],"tree_param":{"num_deleted":"0","num_feature":"37","num_nodes":"11","size_leaf_vector":"1"}},{"base_weights":[-6.5767705E-3,6.0139537E-1,-1.632108E-1,3.0156556E-1,-1.4684919E-1],"categories":[],"categories_nodes":[],"categories_segments":[],"categories_sizes":[],"default_left":[0,0,0,0,0],"id":13,"left_children":[1,3,-1,-1,-1],"loss_changes":[1.9661057E1,1.2931652E1,0E0,0E0,0E0],"parents":[2147483647,0,0,1,1],"right_children":[2,4,-1,-1,-1],"split_conditions":[-5.2330464E-1,2.1964848E0,-1.632108E-1,3.0156556E-1,-1.4684919E-1],"split_indices":[0,1,0,0,0],"split_type":[0,0,0,0,0],"sum_hessian":[5.816839E1,2.723795E1,3.093044E1,1.9936466E1,7.301482E0],"tree_param":{"num_deleted":"0","num_feature":"37","num_nodes":"5","size_leaf_vector":"1"}},{"base_weights":[-1.8596372E-2,-1.6392821E-1,2.9100797E-1],"categories":[],"categories_nodes":[],"categories_segments":[],"categories_sizes":[],"default_left":[0,0,0],"id":14,"left_children":[1,-1,-1],"loss_changes":[3.1463123E1,0E0,0E0],"parents":[2147483647,0,0],"right_children":[2,-1,-1],"split_conditions":[2.1964848E0,-1.6392821E-1,2.9100797E-1],"split_indices":[1,0,0],"split_type":[0,0,0],"sum_hessian":[5.827854E1,3.828517E1,1.999337E1],"tree_param":{"num_deleted":"0","num_feature":"37","num_nodes":"3","size_leaf_vector":"1"}},{"base_weights":[-1.8592745E-2,8.8937753E-1,-1.6385692E-1,-9.4837315E-2,2.9298815E-1],"categories":[],"categories_nodes":[],"categories_segments":[],"categories_sizes":[],"default_left":[0,0,0,0,0],"id":15,"left_children":[1,3,-1,-1,-1],"loss_changes":[2.8967594E1,2.6470394E0,0E0,0E0,0E0],"parents":[2147483647,0,0,1,1],"right_children":[2,4,-1,-1,-1],"split_conditions":[-5.876248E-1,-4.4639796E-1,-1.6385692E-1,-9.4837315E-2,2.9298815E-1],"split_indices":[28,4,0,0,0],"split_type":[0,0,0,0,0],"sum_hessian":[5.845575E1,2.1231535E1,3.7224216E1,1.2559011E0,1.9975634E1],"tree_param":{"num_deleted":"0","num_feature":"37","num_nodes":"5","size_leaf_vector":"1"}},{"base_weights":[8.323515E-3,-1.6221526E-1,4.9377263E-1,-1.3879992E-1,6.392108E-1,8.0253243E-1,-1.349347E-1,2.6561985E-2,9.76406E-1,-1.2786102E-1,2.1989691E-1,3.0983278E-1,1.602174E-2],"categories":[],"categories_nodes":[],"categories_segments":[],"categories_sizes":[],"default_left":[0,0,0,0,0,0,0,0,0,0,0,0,0],"id":16,"left_children":[1,-1,3,-1,5,7,-1,9,11,-1,-1,-1,-1],"loss_changes":[1.6186773E1,0E0,4.778087E0,0E0,5.4102907E0,3.3533745E0,0E0,2.107657E0,1.0080013E0,0E0,0E0,0E0,0E0],"parents":[2147483647,0,0,2,2,4,4,5,5,7,7,8,8],"right_children":[2,-1,4,-1,6,8,-1,10,12,-1,-1,-1,-1],"split_conditions":[-5.110053E-1,-1.6221526E-1,-2.507503E-1,-1.3879992E-1,-1.2097665E-1,-2.317257E-1,-1.349347E-1,-3.181587E-1,-4.618741E-1,-1.2786102E-1,2.1989691E-1,3.0983278E-1,1.602174E-2],"split_indices":[0,0,11,0,10,24,0,2,14,0,0,0,0],"split_type":[0,0,0,0,0,0,0,0,0,0,0,0,0],"sum_hessian":[5.872946E1,2.7506205E1,3.1223259E1,3.8333013E0,2.738996E1,2.4046621E1,3.3433373E0,4.6128707E0,1.943375E1,3.0528855E0,1.5599849E0,1.8203108E1,1.2306426E0],"tree_param":{"num_deleted":"0","num_feature":"37","num_nodes":"13","size_leaf_vector":"1"}},{"base_weights":[1.654785E-2,-4.6101576E-1,6.298851E-1,1.5931833E-1,-5.114069E-1,8.227973E-1,1.19556494E-1,1.8884675E-1,-1.0026154E-1,-2.9004672E-1,-1.6159758E-1,6.554276E-3,8.8638234E-1,3.132001E-1,-2.5931054E-1,4.0998287E-2,-1.3050385E-1,4.6611312E-1,9.859616E-1,8.8853076E-2,-1.4214844E-1,2.4536525E-1,-1.0210037E-1,2.1193184E-2,3.208998E-1],"categories":[],"categories_nodes":[],"categories_segments":[],"categories_sizes":[],"default_left":[0,0,0,0,0,0,0,0,0,0,0,0,0,0,0,0,0,0,0,0,0,0,0,0,0],"id":17,"left_children":[1,3,5,7,9,11,13,-1,-1,15,-1,-1,17,-1,19,-1,-1,21,23,-1,-1,-1,-1,-1,-1],"loss_changes":[1.7793797E1,1.1497602E0,2.518651E0,9.8307276E-1,3.5865784E-2,9.5441246E-1,3.2345052E0,0E0,0E0,4.0940246E-1,0E0,0E0,2.80715E-1,0E0,9.510251E-1,0E0,0E0,1.7776372E0,9.5139027E-1,0E0,0E0,0E0,0E0,0E0,0E0],"parents":[2147483647,0,0,1,1,2,2,3,3,4,4,5,5,6,6,9,9,12,12,14,14,17,17,18,18],"right_children":[2,4,6,8,10,12,14,-1,-1,16,-1,-1,18,-1,20,-1,-1,22,24,-1,-1,-1,-1,-1,-1],"split_conditions":[-4.635829E-1,-5.63853E-1,-5.990247E-1,-3.2386935E-1,-4.8882797E-1,-5.187107E-1,-7.696414E-1,1.8884675E-1,-1.0026154E-1,-3.2919133E-1,-1.6159758E-1,6.554276E-3,-6.905461E-1,3.132001E-1,-4.601637E-1,4.0998287E-2,-1.3050385E-1,-4.6187466E-1,-4.618765E-1,8.8853076E-2,-1.4214844E-1,2.4536525E-1,-1.0210037E-1,2.1193184E-2,3.208998E-1],"split_indices":[0,27,32,33,12,22,23,0,0,33,0,0,23,0,1,0,0,14,14,0,0,0,0,0,0],"split_type":[0,0,0,0,0,0,0,0,0,0,0,0,0,0,0,0,0,0,0,0,0,0,0,0,0],"sum_hessian":[5.875746E1,3.317484E1,2.5582623E1,2.3300004E0,3.0844837E1,1.8120499E1,7.4621234E0,1.0521431E0,1.2778573E0,4.6573505E0,2.6187487E1,1.4315501E0,1.6688948E1,1.6588674E0,5.8032565E0,1.1955472E0,3.4618037E0,4.285029E0,1.2403919E1,1.5106925E0,4.292564E0,2.9737172E0,1.3113115E0,1.1937789E0,1.121014E1],"tree_param":{"num_deleted":"0","num_feature":"37","num_nodes":"25","size_leaf_vector":"1"}},{"base_weights":[1.8949272E-2,5.1953226E-1,-4.10477E-1,2.5883278E-1,-1.4063267E-1,2.145023E-2,-1.5709122E-1,-1.2770852E-1,5.4953724E-1,2.4728002E-2,2.2440638E-1],"categories":[],"categories_nodes":[],"categories_segments":[],"categories_sizes":[],"default_left":[0,0,0,0,0,0,0,0,0,0,0],"id":18,"left_children":[1,3,5,-1,-1,7,-1,-1,9,-1,-1],"loss_changes":[1.1420857E1,8.720826E0,1.410181E0,0E0,0E0,1.8638443E0,0E0,0E0,2.7223682E-1,0E0,0E0],"parents":[2147483647,0,0,1,1,2,2,5,5,8,8],"right_children":[2,4,6,-1,-1,8,-1,-1,10,-1,-1],"split_conditions":[-4.6187696E-1,1.6236883E0,-1.3054675E-1,2.5883278E-1,-1.4063267E-1,-5.785919E-1,-1.5709122E-1,-1.2770852E-1,-4.6016318E-1,2.4728002E-2,2.2440638E-1],"split_indices":[14,19,34,0,0,30,0,0,1,0,0],"split_type":[0,0,0,0,0,0,0,0,0,0,0],"sum_hessian":[5.1137234E1,2.3515429E1,2.7621805E1,1.7547962E1,5.9674673E0,5.902544E0,2.1719261E1,3.301212E0,2.6013317E0,1.1977761E0,1.4035556E0],"tree_param":{"num_deleted":"0","num_feature":"37","num_nodes":"11","size_leaf_vector":"1"}},{"base_weights":[-1.0725363E-2,5.040373E-1,-1.5819263E-1,2.4251832E-1,-1.3953005E-1],"categories":[],"categories_nodes":[],"categories_segments":[],"categories_sizes":[],"default_left":[0,0,0,0,0],"id":19,"left_children":[1,3,-1,-1,-1],"loss_changes":[1.3946664E1,8.127804E0,0E0,0E0,0E0],"parents":[2147483647,0,0,1,1],"right_children":[2,4,-1,-1,-1],"split_conditions":[-5.2330464E-1,2.1964848E0,-1.5819263E-1,2.4251832E-1,-1.3953005E-1],"split_indices":[0,1,0,0,0],"split_type":[0,0,0,0,0],"sum_hessian":[5.0447773E1,2.528058E1,2.5167192E1,1.9364906E1,5.9156756E0],"tree_param":{"num_deleted":"0","num_feature":"37","num_nodes":"5","size_leaf_vector":"1"}},{"base_weights":[-2.0743493E-2,-1.5905301E-1,2.3679893E-1],"categories":[],"categories_nodes":[],"categories_segments":[],"categories_sizes":[],"default_left":[0,0,0],"id":20,"left_children":[1,-1,-1],"loss_changes":[2.1545496E1,0E0,0E0],"parents":[2147483647,0,0],"right_children":[2,-1,-1],"split_conditions":[2.1964848E0,-1.5905301E-1,2.3679893E-1],"split_indices":[1,0,0],"split_type":[0,0,0],"sum_hessian":[5.019488E1,3.1027836E1,1.9167048E1],"tree_param":{"num_deleted":"0","num_feature":"37","num_nodes":"3","size_leaf_vector":"1"}},{"base_weights":[-2.1423653E-2,7.242854E-1,-1.5895003E-1,-8.692087E-2,2.3794678E-1],"categories":[],"categories_nodes":[],"categories_segments":[],"categories_sizes":[],"default_left":[0,0,0,0,0],"id":21,"left_children":[1,3,-1,-1,-1],"loss_changes":[1.9890015E1,1.7159309E0,0E0,0E0,0E0],"parents":[2147483647,0,0,1,1],"right_children":[2,4,-1,-1,-1],"split_conditions":[-5.876248E-1,-4.4639796E-1,-1.5895003E-1,-8.692087E-2,2.3794678E-1],"split_indices":[28,4,0,0,0],"split_type":[0,0,0,0,0],"sum_hessian":[5.045064E1,2.0280153E1,3.0170486E1,1.0858314E0,1.9194323E1],"tree_param":{"num_deleted":"0","num_feature":"37","num_nodes":"5","size_leaf_vector":"1"}},{"base_weights":[7.6151527E-3,-1.5769228E-1,4.0523624E-1,-3.8291633E-1,6.272877E-1,-1.4155555E-1,2.1649515E-2,3.439786E-2,7.515433E-1,-1.1973581E-1,1.7796493E-1,2.6412413E-2,7.854002E-1,1.4236444E-2,8.3321035E-1,8.2985416E-2,2.5877458E-1],"categories":[],"categories_nodes":[],"categories_segments":[],"categories_sizes":[],"default_left":[0,0,0,0,0,0,0,0,0,0,0,0,0,0,0,0,0],"id":22,"left_children":[1,-1,3,5,7,-1,-1,9,11,-1,-1,-1,13,-1,15,-1,-1],"loss_changes":[1.1479122E1,0E0,5.665942E0,3.3498895E-1,1.7839851E0,0E0,0E0,1.5218244E0,3.8602924E-1,0E0,0E0,0E0,6.361809E-1,0E0,5.445862E-2,0E0,0E0],"parents":[2147483647,0,0,2,2,3,3,4,4,7,7,8,8,12,12,14,14],"right_children":[2,-1,4,6,8,-1,-1,10,12,-1,-1,-1,14,-1,16,-1,-1],"split_conditions":[-2.507503E-1,-1.5769228E-1,-1.2299342E-1,-5.059903E-1,-2.317257E-1,-1.4155555E-1,2.1649515E-2,-3.181587E-1,-4.4362456E-1,-1.1973581E-1,1.7796493E-1,2.6412413E-2,-5.854692E-1,1.4236444E-2,-4.6016443E-1,8.2985416E-2,2.5877458E-1],"split_indices":[11,0,34,23,24,0,0,2,31,0,0,0,28,0,1,0,0],"split_type":[0,0,0,0,0,0,0,0,0,0,0,0,0,0,0,0,0],"sum_hessian":[5.213356E1,2.2131151E1,3.0002409E1,6.4355445E0,2.3566864E1,5.3526397E0,1.0829048E0,4.3045225E0,1.9262342E1,2.5849578E0,1.7195646E0,1.1099906E0,1.8152351E1,1.2257397E0,1.692661E1,1.370649E0,1.5555963E1],"tree_param":{"num_deleted":"0","num_feature":"37","num_nodes":"17","size_leaf_vector":"1"}},{"base_weights":[2.480614E-2,-4.3215862E-1,5.2333736E-1,-1.5720727E-1,-4.181769E-2,7.38935E-1,2.2983195E-1,2.2749983E-1,-1.3143735E-1,6.6876E-2,2.4088256E-1,6.4914334E-1,-9.4274014E-2,2.3361395E-1,1.90371E-2,3.3763897E-1,-1.3468306E-1,1.8755278E-1,-1.854978E-2],"categories":[],"categories_nodes":[],"categories_segments":[],"categories_sizes":[],"default_left":[0,0,0,0,0,0,0,0,0,0,0,0,0,0,0,0,0,0,0],"id":23,"left_children":[1,3,5,-1,7,9,11,-1,-1,-1,-1,13,15,-1,-1,17,-1,-1,-1],"loss_changes":[1.2380138E1,9.958949E-1,1.4733615E0,0E0,2.391564E0,3.0055332E-1,1.7529304E0,0E0,0E0,0E0,0E0,3.7205172E-1,1.3608954E0,0E0,0E0,5.1307786E-1,0E0,0E0,0E0],"parents":[2147483647,0,0,1,1,2,2,4,4,5,5,6,6,11,11,12,12,15,15],"right_children":[2,4,6,-1,8,10,12,-1,-1,-1,-1,14,16,-1,-1,18,-1,-1,-1],"split_conditions":[-4.635829E-1,-5.1100576E-1,-5.782028E-1,-1.5720727E-1,-5.110053E-1,-5.187107E-1,-4.888296E-1,2.2749983E-1,-1.3143735E-1,6.6876E-2,2.4088256E-1,-6.1505616E-1,-4.618761E-1,2.3361395E-1,1.90371E-2,9.919132E-1,-1.3468306E-1,1.8755278E-1,-1.854978E-2],"split_indices":[0,0,30,0,0,22,12,0,0,0,0,5,14,0,0,25,0,0,0],"split_type":[0,0,0,0,0,0,0,0,0,0,0,0,0,0,0,0,0,0,0],"sum_hessian":[5.235108E1,2.7383707E1,2.4967377E1,2.1889582E1,5.494125E0,1.351913E1,1.1448247E1,1.5172569E0,3.976868E0,1.9865531E0,1.1532577E1,4.553846E0,6.8944016E0,3.459038E0,1.0948077E0,3.130332E0,3.7640693E0,1.4916474E0,1.6386847E0],"tree_param":{"num_deleted":"0","num_feature":"37","num_nodes":"19","size_leaf_vector":"1"}},{"base_weights":[1.789743E-2,4.5548332E-1,-3.8515267E-1,2.1987996E-1,-1.3318595E-1,2.49033E-2,-1.5235837E-1,-1.2058419E-1,4.622993E-1,1.9316642E-2,1.8947701E-1],"categories":[],"categories_nodes":[],"categories_segments":[],"categories_sizes":[],"default_left":[0,0,0,0,0,0,0,0,0,0,0],"id":24,"left_children":[1,3,5,-1,-1,7,-1,-1,9,-1,-1],"loss_changes":[8.071775E0,5.796579E0,1.2125847E0,0E0,0E0,1.3892838E0,0E0,0E0,2.0511842E-1,0E0,0E0],"parents":[2147483647,0,0,1,1,2,2,5,5,8,8],"right_children":[2,4,6,-1,-1,8,-1,-1,10,-1,-1],"split_conditions":[-4.6187696E-1,1.6236883E0,-1.3054675E-1,2.1987996E-1,-1.3318595E-1,-5.785919E-1,-1.5235837E-1,-1.2058419E-1,-4.6016318E-1,1.9316642E-2,1.8947701E-1],"split_indices":[14,19,34,0,0,30,0,0,1,0,0],"split_type":[0,0,0,0,0,0,0,0,0,0,0],"sum_hessian":[4.377172E1,2.0924353E1,2.284737E1,1.6132933E1,4.791419E0,5.4458823E0,1.7401487E1,2.797183E0,2.6486993E0,1.2025359E0,1.4461634E0],"tree_param":{"num_deleted":"0","num_feature":"37","num_nodes":"11","size_leaf_vector":"1"}},{"base_weights":[-1.5364826E-2,4.430779E-1,-1.5381297E-1,2.0857847E-1,-1.3227834E-1],"categories":[],"categories_nodes":[],"categories_segments":[],"categories_sizes":[],"default_left":[0,0,0,0,0],"id":25,"left_children":[1,3,-1,-1,-1],"loss_changes":[1.0129219E1,5.4640574E0,0E0,0E0,0E0],"parents":[2147483647,0,0,1,1],"right_children":[2,4,-1,-1,-1],"split_conditions":[-5.2330464E-1,2.1964848E0,-1.5381297E-1,2.0857847E-1,-1.3227834E-1],"split_indices":[0,1,0,0,0],"split_type":[0,0,0,0,0],"sum_hessian":[4.2429234E1,2.2134869E1,2.0294363E1,1.738803E1,4.746839E0],"tree_param":{"num_deleted":"0","num_feature":"37","num_nodes":"5","size_leaf_vector":"1"}},{"base_weights":[-2.3488216E-2,-1.5486112E-1,2.0507157E-1],"categories":[],"categories_nodes":[],"categories_segments":[],"categories_sizes":[],"default_left":[0,0,0],"id":26,"left_children":[1,-1,-1],"loss_changes":[1.5326696E1,0E0,0E0],"parents":[2147483647,0,0],"right_children":[2,-1,-1],"split_conditions":[2.1964848E0,-1.5486112E-1,2.0507157E-1],"split_indices":[1,0,0],"split_type":[0,0,0],"sum_hessian":[4.198139E1,2.4899843E1,1.7081549E1],"tree_param":{"num_deleted":"0","num_feature":"37","num_nodes":"3","size_leaf_vector":"1"}},{"base_weights":[-2.4862954E-2,6.2507105E-1,-1.5471731E-1,2.0557179E-1,-2.650299E-2],"categories":[],"categories_nodes":[],"categories_segments":[],"categories_sizes":[],"default_left":[0,0,0,0,0],"id":27,"left_children":[1,3,-1,-1,-1],"loss_changes":[1.4130789E1,8.7936306E-1,0E0,0E0,0E0],"parents":[2147483647,0,0,1,1],"right_children":[2,4,-1,-1,-1],"split_conditions":[-5.876248E-1,-5.136174E-1,-1.5471731E-1,2.0557179E-1,-2.650299E-2],"split_indices":[28,0,0,0,0],"split_type":[0,0,0,0,0],"sum_hessian":[4.2282867E1,1.8075825E1,2.4207043E1,1.6706333E1,1.3694915E0],"tree_param":{"num_deleted":"0","num_feature":"37","num_nodes":"5","size_leaf_vector":"1"}},{"base_weights":[1.0774757E-2,-1.5245363E-1,3.553705E-1,4.4979352E-1,-1.2356457E-1,-1.1555313E-1,5.516029E-1,3.3403944E-2,6.5759504E-1,-1.1274535E-1,1.4806075E-1,6.973639E-1,3.8171147E-3,2.386499E-2,2.1977784E-1],"categories":[],"categories_nodes":[],"categories_segments":[],"categories_sizes":[],"default_left":[0,0,0,0,0,0,0,0,0,0,0,0,0,0,0],"id":28,"left_children":[1,-1,3,5,-1,-1,7,9,11,-1,-1,13,-1,-1,-1],"loss_changes":[8.418309E0,0E0,2.2334106E0,2.3930264E0,0E0,0E0,1.2563949E0,1.1280369E0,4.8529434E-1,0E0,0E0,3.3634377E-1,0E0,0E0,0E0],"parents":[2147483647,0,0,2,2,3,3,6,6,7,7,8,8,11,11],"right_children":[2,-1,4,6,-1,-1,8,10,12,-1,-1,14,-1,-1,-1],"split_conditions":[-5.110053E-1,-1.5245363E-1,-1.2097665E-1,-2.507503E-1,-1.2356457E-1,-1.1555313E-1,-2.317257E-1,-3.181587E-1,-4.618741E-1,-1.1274535E-1,1.4806075E-1,-4.4362456E-1,3.8171147E-3,2.386499E-2,2.1977784E-1],"split_indices":[0,0,10,11,0,0,24,2,14,0,0,31,0,0,0],"split_type":[0,0,0,0,0,0,0,0,0,0,0,0,0,0,0],"sum_hessian":[4.506474E1,1.7793465E1,2.7271273E1,2.4651287E1,2.619986E0,2.3766148E0,2.2274672E1,4.0057216E0,1.8268951E1,2.2171347E0,1.7885869E0,1.7131086E1,1.1378651E0,1.0999076E0,1.6031178E1],"tree_param":{"num_deleted":"0","num_feature":"37","num_nodes":"15","size_leaf_vector":"1"}},{"base_weights":[3.1188024E-2,-1.5229428E-1,3.686545E-1,6.4935005E-1,7.8755885E-2,2.9369751E-2,6.8668044E-1,5.165839E-1,-1.1671386E-1,2.150218E-1,6.0310803E-2,7.4716314E-4,1.9742334E-1,-1.3358675E-1,1.07619725E-1,5.219192E-1,-2.7465928E-1,2.0901538E-1,1.3462813E-2,3.0081516E-2,-1.2281525E-1],"categories":[],"categories_nodes":[],"categories_segments":[],"categories_sizes":[],"default_left":[0,0,0,0,0,0,0,0,0,0,0,0,0,0,0,0,0,0,0,0,0],"id":29,"left_children":[1,-1,3,5,7,-1,9,11,13,-1,-1,-1,-1,-1,15,17,19,-1,-1,-1,-1],"loss_changes":[8.67239E0,0E0,2.3308635E0,2.3609352E-1,1.390088E0,0E0,5.4935455E-2,3.606285E-1,8.9986813E-1,0E0,0E0,0E0,0E0,0E0,1.3587259E0,3.0457413E-1,2.7575028E-1,0E0,0E0,0E0,0E0],"parents":[2147483647,0,0,2,2,3,3,4,4,6,6,7,7,8,8,14,14,15,15,16,16],"right_children":[2,-1,4,6,8,-1,10,12,14,-1,-1,-1,-1,-1,16,18,20,-1,-1,-1,-1],"split_conditions":[-5.1100576E-1,-1.5229428E-1,-5.782028E-1,-6.015801E-1,-5.63853E-1,2.9369751E-2,3.000566E-1,-5.766409E-1,-4.6016377E-1,2.150218E-1,6.0310803E-2,7.4716314E-4,1.9742334E-1,-1.3358675E-1,-4.8882797E-1,1.4340721E0,-4.6016264E-1,2.0901538E-1,1.3462813E-2,3.0081516E-2,-1.2281525E-1],"split_indices":[0,0,30,22,27,0,11,30,1,0,0,0,0,0,12,0,1,0,0,0,0],"split_type":[0,0,0,0,0,0,0,0,0,0,0,0,0,0,0,0,0,0,0,0,0],"sum_hessian":[4.5663506E1,1.7390944E1,2.8272562E1,1.3734323E1,1.4538239E1,1.1004716E0,1.2633851E1,3.9802318E0,1.0558007E1,1.1449345E1,1.1845069E0,1.0786709E0,2.9015608E0,3.8841121E0,6.6738954E0,3.0275106E0,3.6463845E0,1.8786435E0,1.1488672E0,1.0315037E0,2.6148808E0],"tree_param":{"num_deleted":"0","num_feature":"37","num_nodes":"21","size_leaf_vector":"1"}},{"base_weights":[1.6279534E-2,4.1079143E-1,-3.6199418E-1,1.9499165E-1,-1.2579897E-1,2.549031E-2,-1.4797197E-1,-1.1307816E-1,3.9017224E-1,1.466815E-2,1.6149923E-1],"categories":[],"categories_nodes":[],"categories_segments":[],"categories_sizes":[],"default_left":[0,0,0,0,0,0,0,0,0,0,0],"id":30,"left_children":[1,3,5,-1,-1,7,-1,-1,9,-1,-1],"loss_changes":[5.774713E0,4.029504E0,1.0183628E0,0E0,0E0,1.0209585E0,0E0,0E0,1.564768E-1,0E0,0E0],"parents":[2147483647,0,0,1,1,2,2,5,5,8,8],"right_children":[2,4,6,-1,-1,8,-1,-1,10,-1,-1],"split_conditions":[-4.6187696E-1,1.6236883E0,-1.3054675E-1,1.9499165E-1,-1.2579897E-1,-5.785919E-1,-1.4797197E-1,-1.1307816E-1,-4.6016318E-1,1.466815E-2,1.6149923E-1],"split_indices":[14,19,34,0,0,30,0,0,1,0,0],"split_type":[0,0,0,0,0,0,0,0,0,0,0],"sum_hessian":[3.669937E1,1.7922033E1,1.8777338E1,1.408172E1,3.840314E0,4.954793E0,1.3822545E1,2.3395638E0,2.615229E0,1.1942719E0,1.4209571E0],"tree_param":{"num_deleted":"0","num_feature":"37","num_nodes":"11","size_leaf_vector":"1"}},{"base_weights":[-1.9997133E-2,4.0127182E-1,-1.497892E-1,1.8674E-1,-1.2487068E-1],"categories":[],"categories_nodes":[],"categories_segments":[],"categories_sizes":[],"default_left":[0,0,0,0,0],"id":31,"left_children":[1,3,-1,-1,-1],"loss_changes":[7.447245E0,3.8135042E0,0E0,0E0,0E0],"parents":[2147483647,0,0,1,1],"right_children":[2,4,-1,-1,-1],"split_conditions":[-5.2330464E-1,2.1964848E0,-1.497892E-1,1.8674E-1,-1.2487068E-1],"split_indices":[0,1,0,0,0],"split_type":[0,0,0,0,0],"sum_hessian":[3.489093E1,1.8656267E1,1.6234665E1,1.4871131E1,3.7851355E0],"tree_param":{"num_deleted":"0","num_feature":"37","num_nodes":"5","size_leaf_vector":"1"}},{"base_weights":[-2.614472E-2,-1.5107808E-1,1.844147E-1],"categories":[],"categories_nodes":[],"categories_segments":[],"categories_sizes":[],"default_left":[0,0,0],"id":32,"left_children":[1,-1,-1],"loss_changes":[1.1129401E1,0E0,0E0],"parents":[2147483647,0,0],"right_children":[2,-1,-1],"split_conditions":[2.1964848E0,-1.5107808E-1,1.844147E-1],"split_indices":[1,0,0],"split_type":[0,0,0],"sum_hessian":[3.4361473E1,1.9813995E1,1.4547478E1],"tree_param":{"num_deleted":"0","num_feature":"37","num_nodes":"3","size_leaf_vector":"1"}},{"base_weights":[-2.7409216E-2,5.5780584E-1,-1.5088086E-1,-2.5218815E-2,1.8474795E-1],"categories":[],"categories_nodes":[],"categories_segments":[],"categories_sizes":[],"default_left":[0,0,0,0,0],"id":33,"left_children":[1,3,-1,-1,-1],"loss_changes":[1.0228209E1,6.662197E-1,0E0,0E0,0E0],"parents":[2147483647,0,0,1,1],"right_children":[2,4,-1,-1,-1],"split_conditions":[-5.876248E-1,-6.1582565E-1,-1.5088086E-1,-2.5218815E-2,1.8474795E-1],"split_indices":[28,5,0,0,0],"split_type":[0,0,0,0,0],"sum_hessian":[3.4746265E1,1.5499063E1,1.9247202E1,1.2476603E0,1.4251402E1],"tree_param":{"num_deleted":"0","num_feature":"37","num_nodes":"5","size_leaf_vector":"1"}},{"base_weights":[1.2335323E-2,-1.4847425E-1,3.139293E-1,-3.2697845E-1,4.7054124E-1,-1.2709726E-1,1.5446851E-2,3.4161866E-2,5.61097E-1,1.370605E-1,-1.08990125E-1,1.8227028E-2,5.915922E-1,7.889676E-3,6.3432246E-1,5.5515435E-2,1.973644E-1],"categories":[],"categories_nodes":[],"categories_segments":[],"categories_sizes":[],"default_left":[0,0,0,0,0,0,0,0,0,0,0,0,0,0,0,0,0],"id":34,"left_children":[1,-1,3,5,7,-1,-1,9,11,-1,-1,-1,13,-1,15,-1,-1],"loss_changes":[6.1767673E0,0E0,2.6928704E0,2.2515863E-1,8.0033636E-1,0E0,0E0,9.436591E-1,2.2511148E-1,0E0,0E0,0E0,3.7009144E-1,0E0,3.5367012E-2,0E0,0E0],"parents":[2147483647,0,0,2,2,3,3,4,4,7,7,8,8,12,12,14,14],"right_children":[2,-1,4,6,8,-1,-1,10,12,-1,-1,-1,14,-1,16,-1,-1],"split_conditions":[-2.507503E-1,-1.4847425E-1,-1.2299342E-1,-4.6187484E-1,-2.317257E-1,-1.2709726E-1,1.5446851E-2,-1.0804746E-1,-4.4362456E-1,1.370605E-1,-1.08990125E-1,1.8227028E-2,-5.854692E-1,7.889676E-3,-1.8418042E-1,5.5515435E-2,1.973644E-1],"split_indices":[11,0,34,14,24,0,0,34,31,0,0,0,28,0,24,0,0],"split_type":[0,0,0,0,0,0,0,0,0,0,0,0,0,0,0,0,0],"sum_hessian":[3.835983E1,1.4064246E1,2.4295582E1,4.5573945E0,1.9738188E1,3.534986E0,1.0224081E0,3.628768E0,1.610942E1,1.6861073E0,1.9426607E0,1.0973473E0,1.5012073E1,1.1685385E0,1.3843534E1,1.1309527E0,1.2712582E1],"tree_param":{"num_deleted":"0","num_feature":"37","num_nodes":"17","size_leaf_vector":"1"}},{"base_weights":[3.7799023E-2,-1.477362E-1,3.2988223E-1,5.621695E-1,8.2071334E-2,2.6248533E-1,1.9790728E-1,2.6493132E-1,-3.1426224E-1,-9.513634E-2,1.5698493E-1,1.6882081E-1,1.8681234E-2,-9.799552E-4,-1.18850015E-1,-1.0587075E-1,2.4324629E-1,1.5368098E-1,-9.2390284E-2],"categories":[],"categories_nodes":[],"categories_segments":[],"categories_sizes":[],"default_left":[0,0,0,0,0,0,0,0,0,0,0,0,0,0,0,0,0,0,0],"id":35,"left_children":[1,-1,3,5,7,9,-1,11,13,-1,-1,-1,15,-1,-1,-1,17,-1,-1],"loss_changes":[6.401846E0,0E0,1.4836469E0,2.227478E-1,1.0999995E0,9.1974366E-1,0E0,7.332832E-1,1.2317768E-1,0E0,0E0,0E0,6.354216E-1,0E0,0E0,0E0,8.543028E-1,0E0,0E0],"parents":[2147483647,0,0,2,2,3,3,4,4,5,5,7,7,8,8,12,12,16,16],"right_children":[2,-1,4,6,8,10,-1,12,14,-1,-1,-1,16,-1,-1,-1,18,-1,-1],"split_conditions":[-5.1100576E-1,-1.477362E-1,-5.782028E-1,-4.2127237E-1,-6.030761E-1,-1.0644037E-1,1.9790728E-1,-1.6387787E-1,-5.426283E-1,-9.513634E-2,1.5698493E-1,1.6882081E-1,-4.6187577E-1,-9.799552E-4,-1.18850015E-1,-1.0587075E-1,1.4340721E0,1.5368098E-1,-9.2390284E-2],"split_indices":[0,0,30,4,8,34,0,10,25,0,0,0,14,0,0,0,0,0,0],"split_type":[0,0,0,0,0,0,0,0,0,0,0,0,0,0,0,0,0,0,0],"sum_hessian":[3.9285862E1,1.3710169E1,2.5575691E1,1.2546552E1,1.30291395E1,3.986764E0,8.559788E0,9.142518E0,3.8866215E0,1.17017E0,2.8165941E0,3.5563695E0,5.5861483E0,1.0269852E0,2.859636E0,1.8889853E0,3.697163E0,2.532037E0,1.1651261E0],"tree_param":{"num_deleted":"0","num_feature":"37","num_nodes":"19","size_leaf_vector":"1"}},{"base_weights":[1.6875297E-2,3.8023004E-1,-3.38092E-1,1.780957E-1,-1.18040465E-1,3.1125618E-2,-1.4365603E-1,-1.0530951E-1,3.421058E-1,1.1700617E-2,1.4334074E-1],"categories":[],"categories_nodes":[],"categories_segments":[],"categories_sizes":[],"default_left":[0,0,0,0,0,0,0,0,0,0,0],"id":36,"left_children":[1,3,5,-1,-1,7,-1,-1,9,-1,-1],"loss_changes":[4.1768465E0,2.8724425E0,8.6756027E-1,0E0,0E0,7.6984304E-1,0E0,0E0,1.2617606E-1,0E0,0E0],"parents":[2147483647,0,0,1,1,2,2,5,5,8,8],"right_children":[2,4,6,-1,-1,8,-1,-1,10,-1,-1],"split_conditions":[-4.6187696E-1,1.6236883E0,-1.3054675E-1,1.780957E-1,-1.18040465E-1,-5.785919E-1,-1.4365603E-1,-1.0530951E-1,-4.6016318E-1,1.1700617E-2,1.4334074E-1],"split_indices":[14,19,34,0,0,30,0,0,1,0,0],"split_type":[0,0,0,0,0,0,0,0,0,0,0],"sum_hessian":[3.0387224E1,1.4981035E1,1.5406189E1,1.1924427E1,3.0566084E0,4.467307E0,1.0938882E1,1.9465005E0,2.5208066E0,1.1776738E0,1.3431327E0],"tree_param":{"num_deleted":"0","num_feature":"37","num_nodes":"11","size_leaf_vector":"1"}},{"base_weights":[-2.441015E-2,3.7024075E-1,-1.4583826E-1,1.714428E-1,-1.171876E-1],"categories":[],"categories_nodes":[],"categories_segments":[],"categories_sizes":[],"default_left":[0,0,0,0,0],"id":37,"left_children":[1,3,-1,-1,-1],"loss_changes":[5.5085316E0,2.7242055E0,0E0,0E0,0E0],"parents":[2147483647,0,0,1,1],"right_children":[2,4,-1,-1,-1],"split_conditions":[-5.2330464E-1,2.1964848E0,-1.4583826E-1,1.714428E-1,-1.171876E-1],"split_indices":[0,1,0,0,0],"split_type":[0,0,0,0,0],"sum_hessian":[2.8242838E1,1.5334157E1,1.2908682E1,1.2323681E1,3.0104759E0],"tree_param":{"num_deleted":"0","num_feature":"37","num_nodes":"5","size_leaf_vector":"1"}},{"base_weights":[-2.8371913E-2,-1.474291E-1,1.6980587E-1],"categories":[],"categories_nodes":[],"categories_segments":[],"categories_sizes":[],"default_left":[0,0,0],"id":38,"left_children":[1,-1,-1],"loss_changes":[8.177605E0,0E0,0E0],"parents":[2147483647,0,0],"right_children":[2,-1,-1],"split_conditions":[2.1964848E0,-1.474291E-1,1.6980587E-1],"split_indices":[1,0,0],"split_type":[0,0,0],"sum_hessian":[2.7700424E1,1.56677475E1,1.2032677E1],"tree_param":{"num_deleted":"0","num_feature":"37","num_nodes":"3","size_leaf_vector":"1"}},{"base_weights":[-2.9447965E-2,5.0899804E-1,-1.4717494E-1,1.7024463E-1,-2.6870036E-2],"categories":[],"categories_nodes":[],"categories_segments":[],"categories_sizes":[],"default_left":[0,0,0,0,0],"id":39,"left_children":[1,3,-1,-1,-1],"loss_changes":[7.4868884E0,5.38723E-1,0E0,0E0,0E0],"parents":[2147483647,0,0,1,1],"right_children":[2,4,-1,-1,-1],"split_conditions":[-5.876248E-1,-5.136174E-1,-1.4717494E-1,1.7024463E-1,-2.6870036E-2],"split_indices":[28,0,0,0,0],"split_type":[0,0,0,0,0],"sum_hessian":[2.8147356E1,1.2937291E1,1.5210066E1,1.1833047E1,1.1042445E0],"tree_param":{"num_deleted":"0","num_feature":"37","num_nodes":"5","size_leaf_vector":"1"}},{"base_weights":[1.4670978E-2,-1.4404604E-1,2.876272E-1,3.616351E-1,-1.0586626E-1,-9.651825E-2,4.354549E-1,5.05224E-1,-8.6218424E-2,1.7914622E-1,2.4041875E-1,-8.459501E-2,4.684591E-2,1.5062113E-1,-6.43206E-2],"categories":[],"categories_nodes":[],"categories_segments":[],"categories_sizes":[],"default_left":[0,0,0,0,0,0,0,0,0,0,0,0,0,0,0],"id":40,"left_children":[1,-1,3,5,-1,-1,7,9,11,-1,13,-1,-1,-1,-1],"loss_changes":[4.625821E0,0E0,1.1723467E0,1.1616423E0,0E0,0E0,7.2421336E-1,2.615285E-1,1.8923594E-1,0E0,8.171777E-1,0E0,0E0,0E0,0E0],"parents":[2147483647,0,0,2,2,3,3,6,6,7,7,8,8,10,10],"right_children":[2,-1,4,6,-1,-1,8,10,12,-1,14,-1,-1,-1,-1],"split_conditions":[-5.110053E-1,-1.4404604E-1,-1.2097665E-1,-2.507503E-1,-1.0586626E-1,-9.651825E-2,-4.6187428E-1,-5.832146E-1,-2.4233928E-1,1.7914622E-1,9.491188E-1,-8.459501E-2,4.684591E-2,1.5062113E-1,-6.43206E-2],"split_indices":[0,0,10,11,0,0,14,28,23,0,0,0,0,0,0],"split_type":[0,0,0,0,0,0,0,0,0,0,0,0,0,0,0],"sum_hessian":[3.2226246E1,1.1186994E1,2.1039253E1,1.9250378E1,1.7888749E0,1.5493646E0,1.7701014E1,1.56407385E1,2.0602746E0,1.0678508E1,4.962231E0,1.0493076E0,1.010967E0,3.084105E0,1.8781263E0],"tree_param":{"num_deleted":"0","num_feature":"37","num_nodes":"15","size_leaf_vector":"1"}},{"base_weights":[3.982889E-2,-1.432297E-1,2.9497138E-1,5.1167864E-1,8.63292E-2,2.2048534E-1,1.8376891E-1,2.5575048E-1,-3.0142945E-1,-8.9349814E-2,1.3963324E-1,1.5132505E-1,1.6716238E-2,-4.8524537E-3,-1.14277914E-1,-9.760233E-2,2.1014519E-1,1.3332407E-1,-8.610585E-2],"categories":[],"categories_nodes":[],"categories_segments":[],"categories_sizes":[],"default_left":[0,0,0,0,0,0,0,0,0,0,0,0,0,0,0,0,0,0,0],"id":41,"left_children":[1,-1,3,5,7,9,-1,11,13,-1,-1,-1,15,-1,-1,-1,17,-1,-1],"loss_changes":[4.67812E0,0E0,1.0247614E0,1.9964886E-1,9.4740283E-1,7.0921475E-1,0E0,5.717348E-1,9.559584E-2,0E0,0E0,0E0,4.660762E-1,0E0,0E0,0E0,6.45524E-1,0E0,0E0],"parents":[2147483647,0,0,2,2,3,3,4,4,5,5,7,7,8,8,12,12,16,16],"right_children":[2,-1,4,6,8,10,-1,12,14,-1,-1,-1,16,-1,-1,-1,18,-1,-1],"split_conditions":[-5.1100576E-1,-1.432297E-1,-5.783851E-1,-4.2127237E-1,-6.030761E-1,-1.0644037E-1,1.8376891E-1,-1.6330619E-1,-4.6187693E-1,-8.9349814E-2,1.3963324E-1,1.5132505E-1,-4.6187577E-1,-4.8524537E-3,-1.14277914E-1,-9.760233E-2,1.4340721E0,1.3332407E-1,-8.610585E-2],"split_indices":[0,0,30,4,8,34,0,10,14,0,0,0,14,0,0,0,0,0,0],"split_type":[0,0,0,0,0,0,0,0,0,0,0,0,0,0,0,0,0,0,0],"sum_hessian":[3.3379852E1,1.0738335E1,2.2641518E1,1.0393663E1,1.2247854E1,3.4940217E0,6.8996425E0,8.76058E0,3.487274E0,1.0520656E0,2.441956E0,3.7496285E0,5.0109515E0,1.0223378E0,2.464936E0,1.5637206E0,3.4472308E0,2.4152486E0,1.0319823E0],"tree_param":{"num_deleted":"0","num_feature":"37","num_nodes":"19","size_leaf_vector":"1"}},{"base_weights":[1.734654E-2,3.5524392E-1,-3.1476122E-1,1.6533695E-1,-1.10195175E-1,3.526603E-2,-1.3918476E-1,-9.722121E-2,3.007653E-1,7.948129E-3,1.2904187E-1],"categories":[],"categories_nodes":[],"categories_segments":[],"categories_sizes":[],"default_left":[0,0,0,0,0,0,0,0,0,0,0],"id":42,"left_children":[1,3,5,-1,-1,7,-1,-1,9,-1,-1],"loss_changes":[3.0262191E0,2.0909333E0,7.2800446E-1,0E0,0E0,5.7467484E-1,0E0,0E0,1.0907909E-1,0E0,0E0],"parents":[2147483647,0,0,1,1,2,2,5,5,8,8],"right_children":[2,4,6,-1,-1,8,-1,-1,10,-1,-1],"split_conditions":[-4.6187696E-1,1.6236883E0,-1.3054675E-1,1.6533695E-1,-1.10195175E-1,-5.785919E-1,-1.3918476E-1,-9.722121E-2,-4.6016318E-1,7.948129E-3,1.2904187E-1],"split_indices":[14,19,34,0,0,30,0,0,1,0,0],"split_type":[0,0,0,0,0,0,0,0,0,0,0],"sum_hessian":[2.4970818E1,1.234299E1,1.2627829E1,9.897216E0,2.4457738E0,4.0019646E0,8.625864E0,1.6067373E0,2.3952274E0,1.1538548E0,1.2413725E0],"tree_param":{"num_deleted":"0","num_feature":"37","num_nodes":"11","size_leaf_vector":"1"}},{"base_weights":[-2.8655622E-2,3.4547973E-1,-1.4180553E-1,1.5989037E-1,-1.0920715E-1],"categories":[],"categories_nodes":[],"categories_segments":[],"categories_sizes":[],"default_left":[0,0,0,0,0],"id":43,"left_children":[1,3,-1,-1,-1],"loss_changes":[4.0898542E0,1.9772239E0,0E0,0E0,0E0],"parents":[2147483647,0,0,1,1],"right_children":[2,4,-1,-1,-1],"split_conditions":[-5.2330464E-1,2.1964848E0,-1.4180553E-1,1.5989037E-1,-1.0920715E-1],"split_indices":[0,1,0,0,0],"split_type":[0,0,0,0,0],"sum_hessian":[2.2635824E1,1.240523E1,1.0230595E1,1.0009111E1,2.3961177E0],"tree_param":{"num_deleted":"0","num_feature":"37","num_nodes":"5","size_leaf_vector":"1"}},{"base_weights":[-3.0146336E-2,-1.4374794E-1,1.5867782E-1],"categories":[],"categories_nodes":[],"categories_segments":[],"categories_sizes":[],"default_left":[0,0,0],"id":44,"left_children":[1,-1,-1],"loss_changes":[6.0567055E0,0E0,0E0],"parents":[2147483647,0,0],"right_children":[2,-1,-1],"split_conditions":[2.1964848E0,-1.4374794E-1,1.5867782E-1],"split_indices":[1,0,0],"split_type":[0,0,0],"sum_hessian":[2.2117722E1,1.2345497E1,9.772225E0],"tree_param":{"num_deleted":"0","num_feature":"37","num_nodes":"3","size_leaf_vector":"1"}},{"base_weights":[-3.1213693E-2,4.7074962E-1,-1.4342405E-1,-3.0756711E-3,1.5861312E-1],"categories":[],"categories_nodes":[],"categories_segments":[],"categories_sizes":[],"default_left":[0,0,0,0,0],"id":45,"left_children":[1,3,-1,-1,-1],"loss_changes":[5.5168557E0,3.292265E-1,0E0,0E0,0E0],"parents":[2147483647,0,0,1,1],"right_children":[2,4,-1,-1,-1],"split_conditions":[-5.876248E-1,-2.3001683E-1,-1.4342405E-1,-3.0756711E-3,1.5861312E-1],"split_indices":[28,10,0,0,0],"split_type":[0,0,0,0,0],"sum_hessian":[2.2591398E1,1.0614606E1,1.1976791E1,1.2300276E0,9.384579E0],"tree_param":{"num_deleted":"0","num_feature":"37","num_nodes":"5","size_leaf_vector":"1"}},{"base_weights":[1.3717377E-2,-1.3957193E-1,2.5770763E-1,3.2536265E-1,-9.7502775E-2,-8.805043E-2,3.9141127E-1,4.500373E-3,4.7875556E-1,-9.4919205E-2,9.493846E-2,5.260271E-1,2.510416E-2,4.6895016E-2,1.6962579E-1],"categories":[],"categories_nodes":[],"categories_segments":[],"categories_sizes":[],"default_left":[0,0,0,0,0,0,0,0,0,0,0,0,0,0,0],"id":46,"left_children":[1,-1,3,5,-1,-1,7,9,11,-1,-1,13,-1,-1,-1],"loss_changes":[3.3824801E0,0E0,8.6030567E-1,8.3626235E-1,0E0,0E0,5.512316E-1,5.030917E-1,2.0529938E-1,0E0,0E0,8.2505226E-2,0E0,0E0,0E0],"parents":[2147483647,0,0,2,2,3,3,6,6,7,7,8,8,11,11],"right_children":[2,-1,4,6,-1,-1,8,10,12,-1,-1,14,-1,-1,-1],"split_conditions":[-5.110053E-1,-1.3957193E-1,-1.2097665E-1,-2.507503E-1,-9.7502775E-2,-8.805043E-2,-2.317257E-1,-3.181587E-1,2.375974E0,-9.4919205E-2,9.493846E-2,-5.854692E-1,2.510416E-2,4.6895016E-2,1.6962579E-1],"split_indices":[0,0,10,11,0,0,24,2,0,0,0,28,0,0,0],"split_type":[0,0,0,0,0,0,0,0,0,0,0,0,0,0,0],"sum_hessian":[2.6918533E1,8.778799E0,1.8139734E1,1.6648449E1,1.4912854E0,1.2733805E0,1.5375069E1,3.0253098E0,1.2349759E1,1.4842849E0,1.5410248E0,1.0733958E1,1.6158006E0,1.5119505E0,9.222008E0],"tree_param":{"num_deleted":"0","num_feature":"37","num_nodes":"15","size_leaf_vector":"1"}},{"base_weights":[4.378976E-2,-1.3860095E-1,2.704745E-1,4.6010086E-1,6.961898E-2,1.6535875E-1,2.145384E-1,1.1878552E-1,-9.294399E-2,-4.8606362E-2,1.1890428E-1,-1.1282329E-1,7.8811616E-2,3.8543156E-1,-2.365015E-1,3.6164064E-2,1.3988623E-1,5.8574975E-3,-1.035708E-1],"categories":[],"categories_nodes":[],"categories_segments":[],"categories_sizes":[],"default_left":[0,0,0,0,0,0,0,0,0,0,0,0,0,0,0,0,0,0,0],"id":47,"left_children":[1,-1,3,5,7,-1,9,-1,11,-1,-1,-1,13,15,17,-1,-1,-1,-1],"loss_changes":[3.468859E0,0E0,7.590331E-1,1.16743326E-1,6.343782E-1,0E0,3.7091416E-1,0E0,4.3466792E-1,0E0,0E0,0E0,6.722866E-1,1.7202675E-2,1.0649085E-1,0E0,0E0,0E0,0E0],"parents":[2147483647,0,0,2,2,3,3,4,4,6,6,8,8,12,12,13,13,14,14],"right_children":[2,-1,4,6,8,-1,10,-1,12,-1,-1,-1,14,16,18,-1,-1,-1,-1],"split_conditions":[-5.1100576E-1,-1.3860095E-1,-5.782028E-1,-6.030761E-1,-5.63853E-1,1.6535875E-1,-5.850273E-1,1.1878552E-1,-4.6016377E-1,-4.8606362E-2,1.1890428E-1,-1.1282329E-1,-4.8882797E-1,-5.853078E-1,-4.6187586E-1,3.6164064E-2,1.3988623E-1,5.8574975E-3,-1.035708E-1],"split_indices":[0,0,30,8,27,0,28,0,1,0,0,0,12,28,14,0,0,0,0],"split_type":[0,0,0,0,0,0,0,0,0,0,0,0,0,0,0,0,0,0,0],"sum_hessian":[2.8164743E1,8.395067E0,1.9769676E1,9.505186E0,1.0264489E1,6.025365E0,3.4798214E0,2.9356716E0,7.3288183E0,1.1684955E0,2.3113258E0,2.3180227E0,5.0107956E0,2.4276745E0,2.5831208E0,1.1502683E0,1.2774062E0,1.0145925E0,1.5685283E0],"tree_param":{"num_deleted":"0","num_feature":"37","num_nodes":"19","size_leaf_vector":"1"}},{"base_weights":[1.529084E-2,3.3386904E-1,-2.9452884E-1,1.5506211E-1,-1.0211659E-1,3.3510182E-2,-1.345556E-1,-1.9090948E-1,1.14535205E-1,1.2630357E-2,-9.241332E-2],"categories":[],"categories_nodes":[],"categories_segments":[],"categories_sizes":[],"default_left":[0,0,0,0,0,0,0,0,0,0,0],"id":48,"left_children":[1,3,5,-1,-1,7,-1,9,-1,-1,-1],"loss_changes":[2.2169995E0,1.5396403E0,5.9158146E-1,0E0,0E0,4.3059665E-1,0E0,1.0712877E-1,0E0,0E0,0E0],"parents":[2147483647,0,0,1,1,2,2,5,5,7,7],"right_children":[2,4,6,-1,-1,8,-1,10,-1,-1,-1],"split_conditions":[-4.6187696E-1,1.6236883E0,-1.3054675E-1,1.5506211E-1,-1.0211659E-1,-2.7051884E-1,-1.345556E-1,-3.2919133E-1,1.14535205E-1,1.2630357E-2,-9.241332E-2],"split_indices":[14,19,34,0,0,4,0,33,0,0,0],"split_type":[0,0,0,0,0,0,0,0,0,0,0],"sum_hessian":[2.0465317E1,1.0051766E1,1.041355E1,8.089548E0,1.9622182E0,3.5766737E0,6.836877E0,2.4498727E0,1.126801E0,1.0338539E0,1.4160188E0],"tree_param":{"num_deleted":"0","num_feature":"37","num_nodes":"11","size_leaf_vector":"1"}},{"base_weights":[-3.3881333E-2,3.243008E-1,-1.3767213E-1,1.5049686E-1,-1.01004325E-1],"categories":[],"categories_nodes":[],"categories_segments":[],"categories_sizes":[],"default_left":[0,0,0,0,0],"id":49,"left_children":[1,3,-1,-1,-1],"loss_changes":[3.0552142E0,1.4521129E0,0E0,0E0,0E0],"parents":[2147483647,0,0,1,1],"right_children":[2,4,-1,-1,-1],"split_conditions":[-5.2330464E-1,2.1964848E0,-1.3767213E-1,1.5049686E-1,-1.01004325E-1],"split_indices":[0,1,0,0,0],"split_type":[0,0,0,0,0],"sum_hessian":[1.8091272E1,9.94625E0,8.145022E0,8.032109E0,1.9141406E0],"tree_param":{"num_deleted":"0","num_feature":"37","num_nodes":"5","size_leaf_vector":"1"}},{"base_weights":[-3.2603912E-2,-1.3997544E-1,1.4956145E-1],"categories":[],"categories_nodes":[],"categories_segments":[],"categories_sizes":[],"default_left":[0,0,0],"id":50,"left_children":[1,-1,-1],"loss_changes":[4.523314E0,0E0,0E0],"parents":[2147483647,0,0],"right_children":[2,-1,-1],"split_conditions":[2.1964848E0,-1.3997544E-1,1.4956145E-1],"split_indices":[1,0,0],"split_type":[0,0,0],"sum_hessian":[1.7614323E1,9.760689E0,7.853634E0],"tree_param":{"num_deleted":"0","num_feature":"37","num_nodes":"3","size_leaf_vector":"1"}},{"base_weights":[-3.3056527E-2,4.3816346E-1,-1.3957022E-1,1.4960866E-1,-7.6367375E-3],"categories":[],"categories_nodes":[],"categories_segments":[],"categories_sizes":[],"default_left":[0,0,0,0,0],"id":51,"left_children":[1,3,-1,-1,-1],"loss_changes":[4.098654E0,2.8390872E-1,0E0,0E0,0E0],"parents":[2147483647,0,0,1,1],"right_children":[2,4,-1,-1,-1],"split_conditions":[-5.876248E-1,-5.14731E-1,-1.3957022E-1,1.4960866E-1,-7.6367375E-3],"split_indices":[28,0,0,0,0],"split_type":[0,0,0,0,0],"sum_hessian":[1.812493E1,8.664184E0,9.460747E0,7.596673E0,1.0675104E0],"tree_param":{"num_deleted":"0","num_feature":"37","num_nodes":"5","size_leaf_vector":"1"}},{"base_weights":[1.444802E-2,-1.3483946E-1,2.3313868E-1,2.961163E-1,-8.994501E-2,-8.0219775E-2,3.5627145E-1,4.1502E-1,-4.1352816E-2,8.053406E-2,4.759966E-1,-2.3858158E-2,6.232525E-2,1.5599334E-1,3.1088153E-2],"categories":[],"categories_nodes":[],"categories_segments":[],"categories_sizes":[],"default_left":[0,0,0,0,0,0,0,0,0,0,0,0,0,0,0],"id":52,"left_children":[1,-1,3,5,-1,-1,7,9,-1,11,13,-1,-1,-1,-1],"loss_changes":[2.4983306E0,0E0,6.490512E-1,6.1837065E-1,0E0,0E0,4.74401E-1,2.2872877E-1,0E0,8.2142316E-2,1.24159575E-1,0E0,0E0,0E0,0E0],"parents":[2147483647,0,0,2,2,3,3,6,6,7,7,9,9,10,10],"right_children":[2,-1,4,6,-1,-1,8,10,-1,12,14,-1,-1,-1,-1],"split_conditions":[-5.110053E-1,-1.3483946E-1,-1.2097665E-1,-2.507503E-1,-8.994501E-2,-8.0219775E-2,-4.618741E-1,-2.5407466E-1,-4.1352816E-2,2.079975E0,2.375974E0,-2.3858158E-2,6.232525E-2,1.5599334E-1,3.1088153E-2],"split_indices":[0,0,10,11,0,0,14,24,0,25,0,0,0,0,0],"split_type":[0,0,0,0,0,0,0,0,0,0,0,0,0,0,0],"sum_hessian":[2.2592533E1,6.9000545E0,1.5692479E1,1.4431539E1,1.26094E0,1.0596735E0,1.3371865E1,1.2094001E1,1.2778642E0,2.2226176E0,9.871384E0,1.150258E0,1.0723598E0,8.474091E0,1.3972924E0],"tree_param":{"num_deleted":"0","num_feature":"37","num_nodes":"15","size_leaf_vector":"1"}},{"base_weights":[4.8932645E-2,-1.3366555E-1,2.5079778E-1,3.5823E-1,-3.4281813E-2,4.5605662E-1,1.1363967E-1,1.2824146E-1,-2.9487288E-1,1.494926E-1,2.2932472E-2,-5.945729E-2,2.7337652E-1,-2.4004339E-3,-1.1350593E-1,-2.1628562E-2,1.3484648E-1],"categories":[],"categories_nodes":[],"categories_segments":[],"categories_sizes":[],"default_left":[0,0,0,0,0,0,0,0,0,0,0,0,0,0,0,0,0],"id":53,"left_children":[1,-1,3,5,7,9,11,-1,13,-1,-1,-1,15,-1,-1,-1,-1],"loss_changes":[2.5940316E0,0E0,5.727112E-1,2.6826632E-1,8.3852935E-1,1.0985434E-1,3.1089538E-1,0E0,1.0178879E-1,0E0,0E0,0E0,2.6532575E-1,0E0,0E0,0E0,0E0],"parents":[2147483647,0,0,2,2,3,3,4,4,5,5,6,6,8,8,12,12],"right_children":[2,-1,4,6,8,10,12,-1,14,-1,-1,-1,16,-1,-1,-1,-1],"split_conditions":[-5.1100576E-1,-1.3366555E-1,-5.990247E-1,-5.635404E-1,-7.696414E-1,2.0872397E0,-4.601637E-1,1.2824146E-1,-4.3514556E-1,1.494926E-1,2.2932472E-2,-5.945729E-2,-8.979568E-2,-2.4004339E-3,-1.1350593E-1,-2.1628562E-2,1.3484648E-1],"split_indices":[0,0,32,27,23,25,1,0,3,0,0,0,11,0,0,0,0],"split_type":[0,0,0,0,0,0,0,0,0,0,0,0,0,0,0,0,0],"sum_hessian":[2.386785E1,6.5691137E0,1.7298735E1,1.2377629E1,4.921106E0,8.22384E0,4.15379E0,1.5442991E0,3.3768067E0,7.118829E0,1.1050109E0,1.3254927E0,2.8282971E0,1.0081719E0,2.3686347E0,1.1543938E0,1.6739033E0],"tree_param":{"num_deleted":"0","num_feature":"37","num_nodes":"17","size_leaf_vector":"1"}},{"base_weights":[1.3613865E-2,3.1475958E-1,-2.745469E-1,1.4640684E-1,-9.416778E-2,3.2504212E-2,-1.2958673E-1,-8.225553E-2,2.336551E-1,5.032632E-4,1.0590473E-1],"categories":[],"categories_nodes":[],"categories_segments":[],"categories_sizes":[],"default_left":[0,0,0,0,0,0,0,0,0,0,0],"id":54,"left_children":[1,3,5,-1,-1,7,-1,-1,9,-1,-1],"loss_changes":[1.6321076E0,1.1526158E0,4.7978878E-1,0E0,0E0,3.229095E-1,0E0,0E0,8.451846E-2,0E0,0E0],"parents":[2147483647,0,0,1,1,2,2,5,5,8,8],"right_children":[2,4,6,-1,-1,8,-1,-1,10,-1,-1],"split_conditions":[-4.6187696E-1,1.6236883E0,-1.3054675E-1,1.4640684E-1,-9.416778E-2,-5.785919E-1,-1.2958673E-1,-8.225553E-2,-4.6016318E-1,5.032632E-4,1.0590473E-1],"split_indices":[14,19,34,0,0,30,0,0,1,0,0],"split_type":[0,0,0,0,0,0,0,0,0,0,0],"sum_hessian":[1.6811943E1,8.175615E0,8.636327E0,6.584544E0,1.5910707E0,3.195839E0,5.4404883E0,1.1220294E0,2.0738096E0,1.0490447E0,1.0247649E0],"tree_param":{"num_deleted":"0","num_feature":"37","num_nodes":"11","size_leaf_vector":"1"}},{"base_weights":[-3.918592E-2,3.049895E-1,-1.3322675E-1,1.4229146E-1,-9.272945E-2],"categories":[],"categories_nodes":[],"categories_segments":[],"categories_sizes":[],"default_left":[0,0,0,0,0],"id":55,"left_children":[1,3,-1,-1,-1],"loss_changes":[2.2885244E0,1.076568E0,0E0,0E0,0E0],"parents":[2147483647,0,0,1,1],"right_children":[2,4,-1,-1,-1],"split_conditions":[-5.2330464E-1,2.1964848E0,-1.3322675E-1,1.4229146E-1,-9.272945E-2],"split_indices":[0,1,0,0,0],"split_type":[0,0,0,0,0],"sum_hessian":[1.4450035E1,7.9441323E0,6.5059032E0,6.405613E0,1.5385194E0],"tree_param":{"num_deleted":"0","num_feature":"37","num_nodes":"5","size_leaf_vector":"1"}},{"base_weights":[-3.476916E-2,-1.3590607E-1,1.4156497E-1],"categories":[],"categories_nodes":[],"categories_segments":[],"categories_sizes":[],"default_left":[0,0,0],"id":56,"left_children":[1,-1,-1],"loss_changes":[3.3968728E0,0E0,0E0],"parents":[2147483647,0,0],"right_children":[2,-1,-1],"split_conditions":[2.1964848E0,-1.3590607E-1,1.4156497E-1],"split_indices":[1,0,0],"split_type":[0,0,0],"sum_hessian":[1.402115E1,7.738625E0,6.282525E0],"tree_param":{"num_deleted":"0","num_feature":"37","num_nodes":"3","size_leaf_vector":"1"}},{"base_weights":[-3.4697827E-2,4.0951422E-1,-1.3540608E-1,5.1276954E-3,1.4095815E-1],"categories":[],"categories_nodes":[],"categories_segments":[],"categories_sizes":[],"default_left":[0,0,0,0,0],"id":57,"left_children":[1,3,-1,-1,-1],"loss_changes":[3.0611048E0,1.8250227E-1,0E0,0E0,0E0],"parents":[2147483647,0,0,1,1],"right_children":[2,4,-1,-1,-1],"split_conditions":[-5.876248E-1,-2.2852889E-1,-1.3540608E-1,5.1276954E-3,1.4095815E-1],"split_indices":[28,10,0,0,0],"split_type":[0,0,0,0,0],"sum_hessian":[1.4540385E1,7.04577E0,7.4946156E0,1.1101141E0,5.935656E0],"tree_param":{"num_deleted":"0","num_feature":"37","num_nodes":"5","size_leaf_vector":"1"}},{"base_weights":[1.4546157E-2,-1.2995897E-1,2.1377221E-1,3.070051E-1,-9.801921E-2,3.5976988E-1,-3.704681E-2,1.1995608E-1,4.544449E-1,-8.6604126E-2,9.619496E-2,-2.6393225E-3,1.5653163E-1],"categories":[],"categories_nodes":[],"categories_segments":[],"categories_sizes":[],"default_left":[0,0,0,0,0,0,0,0,0,0,0,0,0],"id":58,"left_children":[1,-1,3,5,-1,7,-1,9,11,-1,-1,-1,-1],"loss_changes":[1.878721E0,0E0,8.323582E-1,3.3757186E-1,0E0,2.12304E-1,0E0,4.7677773E-1,2.5618756E-1,0E0,0E0,0E0,0E0],"parents":[2147483647,0,0,2,2,3,3,5,5,7,7,8,8],"right_children":[2,-1,4,6,-1,8,-1,10,12,-1,-1,-1,-1],"split_conditions":[-2.507503E-1,-1.2995897E-1,-1.2097665E-1,-4.618741E-1,-9.801921E-2,-5.777157E-1,-3.704681E-2,-6.030761E-1,-5.63853E-1,-8.6604126E-2,9.619496E-2,-2.6393225E-3,1.5653163E-1],"split_indices":[11,0,10,14,0,30,0,8,27,0,0,0,0],"split_type":[0,0,0,0,0,0,0,0,0,0,0,0,0],"sum_hessian":[1.9023264E1,5.496338E0,1.3526925E1,1.190534E1,1.6215852E0,1.07518015E1,1.1535387E0,3.6849E0,7.0669017E0,1.0692885E0,2.6156116E0,1.0070761E0,6.0598254E0],"tree_param":{"num_deleted":"0","num_feature":"37","num_nodes":"13","size_leaf_vector":"1"}},{"base_weights":[5.3131763E-2,-1.2824595E-1,2.3248704E-1,3.8918492E-1,4.358016E-2,1.4918622E-1,1.2446413E-1,1.0994919E-1,-1.2740988E-1,-5.177382E-2,9.101702E-2,7.78061E-2,-1.09918125E-1,-8.523886E-2,3.0005252E-1,2.2285793E-2,1.1262074E-1],"categories":[],"categories_nodes":[],"categories_segments":[],"categories_sizes":[],"default_left":[0,0,0,0,0,0,0,0,0,0,0,0,0,0,0,0,0],"id":59,"left_children":[1,-1,3,5,7,-1,9,-1,11,-1,-1,13,-1,-1,15,-1,-1],"loss_changes":[1.9378314E0,0E0,4.6196258E-1,1.8757045E-1,5.139158E-1,0E0,2.5759295E-1,0E0,3.3622187E-1,0E0,0E0,4.2313695E-1,0E0,0E0,2.4658442E-2,0E0,0E0],"parents":[2147483647,0,0,2,2,3,3,4,4,6,6,8,8,11,11,14,14],"right_children":[2,-1,4,6,8,-1,10,-1,12,-1,-1,14,-1,-1,16,-1,-1],"split_conditions":[-5.1100576E-1,-1.2824595E-1,-5.777157E-1,-6.030761E-1,-5.63853E-1,1.4918622E-1,-5.849037E-1,1.0994919E-1,-4.8882797E-1,-5.177382E-2,9.101702E-2,-4.6016395E-1,-1.09918125E-1,-8.523886E-2,-5.853078E-1,2.2285793E-2,1.1262074E-1],"split_indices":[0,0,30,8,27,0,28,0,12,0,0,1,0,0,28,0,0],"split_type":[0,0,0,0,0,0,0,0,0,0,0,0,0,0,0,0,0],"sum_hessian":[2.0327335E1,5.1482115E0,1.5179123E1,7.7173777E0,7.4617453E0,4.8558764E0,2.861501E0,2.187409E0,5.2743363E0,1.0890265E0,1.7724746E0,3.2004943E0,2.073842E0,1.111666E0,2.0888283E0,1.0196353E0,1.0691931E0],"tree_param":{"num_deleted":"0","num_feature":"37","num_nodes":"17","size_leaf_vector":"1"}},{"base_weights":[1.1485331E-2,2.9707488E-1,-2.5614092E-1,1.3861431E-1,-8.6256355E-2,2.9146867E-2,-1.24165945E-1,-3.7697516E-2,6.2178526E-2],"categories":[],"categories_nodes":[],"categories_segments":[],"categories_sizes":[],"default_left":[0,0,0,0,0,0,0,0,0],"id":60,"left_children":[1,3,5,-1,-1,7,-1,-1,-1],"loss_changes":[1.2099926E0,8.6966074E-1,3.8089043E-1,0E0,0E0,1.3226491E-1,0E0,0E0,0E0],"parents":[2147483647,0,0,1,1,2,2,5,5],"right_children":[2,4,6,-1,-1,8,-1,-1,-1],"split_conditions":[-4.6187696E-1,1.6236883E0,-1.3054675E-1,1.3861431E-1,-8.6256355E-2,-5.761524E-1,-1.24165945E-1,-3.7697516E-2,6.2178526E-2],"split_indices":[14,19,34,0,0,30,0,0,0],"split_type":[0,0,0,0,0,0,0,0,0],"sum_hessian":[1.3835547E1,6.6399174E0,7.1956306E0,5.342028E0,1.2978892E0,2.8523302E0,4.3433003E0,1.6835839E0,1.1687465E0],"tree_param":{"num_deleted":"0","num_feature":"37","num_nodes":"9","size_leaf_vector":"1"}},{"base_weights":[-4.3838102E-2,2.8664243E-1,-1.2837887E-1,1.3469434E-1,-8.457379E-2],"categories":[],"categories_nodes":[],"categories_segments":[],"categories_sizes":[],"default_left":[0,0,0,0,0],"id":61,"left_children":[1,3,-1,-1,-1],"loss_changes":[1.7168266E0,8.049158E-1,0E0,0E0,0E0],"parents":[2147483647,0,0,1,1],"right_children":[2,4,-1,-1,-1],"split_conditions":[-5.2330464E-1,2.1964848E0,-1.2837887E-1,1.3469434E-1,-8.457379E-2],"split_indices":[0,1,0,0,0],"split_type":[0,0,0,0,0],"sum_hessian":[1.1558925E1,6.3494415E0,5.2094827E0,5.102768E0,1.2466737E0],"tree_param":{"num_deleted":"0","num_feature":"37","num_nodes":"5","size_leaf_vector":"1"}},{"base_weights":[-3.6045562E-2,-1.3143814E-1,1.3413888E-1],"categories":[],"categories_nodes":[],"categories_segments":[],"categories_sizes":[],"default_left":[0,0,0],"id":62,"left_children":[1,-1,-1],"loss_changes":[2.561385E0,0E0,0E0],"parents":[2147483647,0,0],"right_children":[2,-1,-1],"split_conditions":[2.1964848E0,-1.3143814E-1,1.3413888E-1],"split_indices":[1,0,0],"split_type":[0,0,0],"sum_hessian":[1.1175913E1,6.1507263E0,5.0251865E0],"tree_param":{"num_deleted":"0","num_feature":"37","num_nodes":"3","size_leaf_vector":"1"}},{"base_weights":[-3.3453744E-2,3.8384157E-1,-1.3082671E-1,4.4919476E-3,1.3351013E-1],"categories":[],"categories_nodes":[],"categories_segments":[],"categories_sizes":[],"default_left":[0,0,0,0,0],"id":63,"left_children":[1,3,-1,-1,-1],"loss_changes":[2.3074238E0,1.465196E-1,0E0,0E0,0E0],"parents":[2147483647,0,0,1,1],"right_children":[2,4,-1,-1,-1],"split_conditions":[-5.876248E-1,-2.2852889E-1,-1.3082671E-1,4.4919476E-3,1.3351013E-1],"split_indices":[28,10,0,0,0],"split_type":[0,0,0,0,0],"sum_hessian":[1.173695E1,5.78647E0,5.95048E0,1.0004451E0,4.786025E0],"tree_param":{"num_deleted":"0","num_feature":"37","num_nodes":"5","size_leaf_vector":"1"}},{"base_weights":[1.360232E-2,-1.2441587E-1,1.9434543E-1,-9.552805E-2,2.8644317E-1,4.5084424E-2,-9.171094E-2,-3.9583858E-2,3.8269985E-1,7.2353326E-2,-8.635379E-2,2.0172944E-2,1.31278E-1],"categories":[],"categories_nodes":[],"categories_segments":[],"categories_sizes":[],"default_left":[0,0,0,0,0,0,0,0,0,0,0,0,0],"id":64,"left_children":[1,-1,3,5,7,-1,-1,9,11,-1,-1,-1,-1],"loss_changes":[1.3961859E0,0E0,3.6458614E-1,2.4203074E-1,3.2382792E-1,0E0,0E0,2.888686E-1,1.0369992E-1,0E0,0E0,0E0,0E0],"parents":[2147483647,0,0,2,2,3,3,4,4,7,7,8,8],"right_children":[2,-1,4,6,8,-1,-1,10,12,-1,-1,-1,-1],"split_conditions":[-5.110053E-1,-1.2441587E-1,-2.317257E-1,-1.0804746E-1,-4.6187598E-1,4.5084424E-2,-9.171094E-2,-5.5415414E-2,-5.854692E-1,7.2353326E-2,-8.635379E-2,2.0172944E-2,1.31278E-1],"split_indices":[0,0,24,34,14,0,0,24,28,0,0,0,0],"split_type":[0,0,0,0,0,0,0,0,0,0,0,0,0],"sum_hessian":[1.5993686E1,4.36205E0,1.1631636E1,2.7955432E0,8.836093E0,1.4198885E0,1.3756547E0,2.1483326E0,6.68776E0,1.0215683E0,1.1267643E0,1.3210491E0,5.366711E0],"tree_param":{"num_deleted":"0","num_feature":"37","num_nodes":"13","size_leaf_vector":"1"}},{"base_weights":[5.5779077E-2,2.1891981E-1,-1.2258228E-1,3.3731583E-1,-4.129156E-2,1.3881876E-1,1.6997729E-1,8.809186E-2,-2.536282E-1,2.7725685E-1,-4.8593808E-2,-1.0171595E-1,-2.4347764E-3,1.1566032E-1,1.0760608E-2],"categories":[],"categories_nodes":[],"categories_segments":[],"categories_sizes":[],"default_left":[0,0,0,0,0,0,0,0,0,0,0,0,0,0,0],"id":65,"left_children":[1,3,-1,5,7,-1,9,-1,11,13,-1,-1,-1,-1,-1],"loss_changes":[1.466693E0,4.484442E-1,0E0,1.2706733E-1,4.515055E-1,0E0,2.507472E-1,0E0,7.654846E-2,1.0998309E-1,0E0,0E0,0E0,0E0,0E0],"parents":[2147483647,0,0,1,1,3,3,4,4,6,6,8,8,9,9],"right_children":[2,4,-1,6,8,-1,10,-1,12,14,-1,-1,-1,-1,-1],"split_conditions":[-3.2407403E-1,-6.030761E-1,-1.2258228E-1,-5.777157E-1,-6.021989E-1,1.3881876E-1,-4.8882797E-1,8.809186E-2,-4.8882568E-1,1.4932319E0,-4.8593808E-2,-1.0171595E-1,-2.4347764E-3,1.1566032E-1,1.0760608E-2],"split_indices":[33,8,0,30,32,0,12,0,12,0,0,0,0,0,0],"split_type":[0,0,0,0,0,0,0,0,0,0,0,0,0,0,0],"sum_hessian":[1.7178905E1,1.3104003E1,4.0749016E0,8.802539E0,4.301464E0,4.0225644E0,4.7799745E0,1.5203812E0,2.7810829E0,3.7370422E0,1.0429325E0,1.7805465E0,1.0005363E0,2.167589E0,1.5694532E0],"tree_param":{"num_deleted":"0","num_feature":"37","num_nodes":"15","size_leaf_vector":"1"}},{"base_weights":[1.0196538E-2,-2.5963116E-1,2.6014057E-1,8.597279E-2,-1.2500247E-1,1.20291814E-1,-4.1700915E-2,-5.0614323E-2,2.9881366E-2],"categories":[],"categories_nodes":[],"categories_segments":[],"categories_sizes":[],"default_left":[0,0,0,0,0,0,0,0,0],"id":66,"left_children":[1,3,5,-1,-1,-1,7,-1,-1],"loss_changes":[9.1417617E-1,6.8015605E-1,3.149813E-1,0E0,0E0,0E0,7.312455E-2,0E0,0E0],"parents":[2147483647,0,0,1,1,2,2,6,6],"right_children":[2,4,6,-1,-1,-1,8,-1,-1],"split_conditions":[1.1474792E0,-4.4639796E-1,-4.6016386E-1,8.597279E-2,-1.2500247E-1,1.20291814E-1,-4.6015128E-1,-5.0614323E-2,2.9881366E-2],"split_indices":[26,4,1,0,0,0,1,0,0],"split_type":[0,0,0,0,0,0,0,0,0],"sum_hessian":[1.1553569E1,5.537159E0,6.0164104E0,1.0523186E0,4.4848404E0,3.878413E0,2.1379972E0,1.0237881E0,1.114209E0],"tree_param":{"num_deleted":"0","num_feature":"37","num_nodes":"9","size_leaf_vector":"1"}},{"base_weights":[-4.8213705E-2,2.694436E-1,-1.2328432E-1,1.2746365E-1,-7.671064E-2],"categories":[],"categories_nodes":[],"categories_segments":[],"categories_sizes":[],"default_left":[0,0,0,0,0],"id":67,"left_children":[1,3,-1,-1,-1],"loss_changes":[1.3004354E0,6.072599E-1,0E0,0E0,0E0],"parents":[2147483647,0,0,1,1],"right_children":[2,4,-1,-1,-1],"split_conditions":[-5.2330464E-1,2.1964848E0,-1.2328432E-1,1.2746365E-1,-7.671064E-2],"split_indices":[0,1,0,0,0],"split_type":[0,0,0,0,0],"sum_hessian":[9.325078E0,5.1085505E0,4.2165275E0,4.0891542E0,1.0193963E0],"tree_param":{"num_deleted":"0","num_feature":"37","num_nodes":"5","size_leaf_vector":"1"}},{"base_weights":[-3.5620328E-2,-1.2666428E-1,1.2724875E-1],"categories":[],"categories_nodes":[],"categories_segments":[],"categories_sizes":[],"default_left":[0,0,0],"id":68,"left_children":[1,-1,-1],"loss_changes":[1.957539E0,0E0,0E0],"parents":[2147483647,0,0],"right_children":[2,-1,-1],"split_conditions":[2.1964848E0,-1.2666428E-1,1.2724875E-1],"split_indices":[1,0,0],"split_type":[0,0,0],"sum_hessian":[9.005398E0,4.936449E0,4.0689487E0],"tree_param":{"num_deleted":"0","num_feature":"37","num_nodes":"3","size_leaf_vector":"1"}},{"base_weights":[-3.4206986E-2,3.5882974E-1,-1.2593246E-1,1.1752828E-2,1.254222E-1],"categories":[],"categories_nodes":[],"categories_segments":[],"categories_sizes":[],"default_left":[0,0,0,0,0],"id":69,"left_children":[1,3,-1,-1,-1],"loss_changes":[1.7446984E0,9.2478275E-2,0E0,0E0,0E0],"parents":[2147483647,0,0,1,1],"right_children":[2,4,-1,-1,-1],"split_conditions":[-5.876248E-1,-2.2746155E-1,-1.2593246E-1,1.1752828E-2,1.254222E-1],"split_indices":[28,10,0,0,0],"split_type":[0,0,0,0,0],"sum_hessian":[9.51898E0,4.7481747E0,4.7708054E0,1.0021758E0,3.745999E0],"tree_param":{"num_deleted":"0","num_feature":"37","num_nodes":"5","size_leaf_vector":"1"}},{"base_weights":[1.2392914E-2,-1.1887905E-1,1.7921542E-1,2.6288798E-1,-8.489602E-2,3.2123217E-1,-3.0012952E-2,1.0871419E-1,1.2472085E-1,-6.9547735E-2,9.358931E-2],"categories":[],"categories_nodes":[],"categories_segments":[],"categories_sizes":[],"default_left":[0,0,0,0,0,0,0,0,0,0,0],"id":70,"left_children":[1,-1,3,5,-1,7,-1,9,-1,-1,-1],"loss_changes":[1.0657914E0,0E0,5.0175726E-1,2.4124128E-1,0E0,1.3043469E-1,0E0,3.523542E-1,0E0,0E0,0E0],"parents":[2147483647,0,0,2,2,3,3,5,5,7,7],"right_children":[2,-1,4,6,-1,8,-1,10,-1,-1,-1],"split_conditions":[-2.507503E-1,-1.1887905E-1,-1.2097665E-1,-4.6187428E-1,-8.489602E-2,-1.6330619E-1,-3.0012952E-2,-6.023586E-1,1.2472085E-1,-6.9547735E-2,9.358931E-2],"split_indices":[11,0,10,14,0,10,0,8,0,0,0],"split_type":[0,0,0,0,0,0,0,0,0,0,0],"sum_hessian":[1.35919E1,3.5413876E0,1.0050512E1,8.875082E0,1.1754307E0,7.744917E0,1.130165E0,3.045852E0,4.6990647E0,1.0858865E0,1.9599656E0],"tree_param":{"num_deleted":"0","num_feature":"37","num_nodes":"11","size_leaf_vector":"1"}},{"base_weights":[5.7308495E-2,-1.17957935E-1,2.067789E-1,3.0323455E-1,-2.037486E-3,9.781073E-2,3.9422038E-1,-7.483522E-2,1.7585365E-1,-3.7515722E-2,8.358597E-2,1.3813782E-1,1.7382083E-2,-9.186442E-3,8.4210984E-2],"categories":[],"categories_nodes":[],"categories_segments":[],"categories_sizes":[],"default_left":[0,0,0,0,0,0,0,0,0,0,0,0,0,0,0],"id":71,"left_children":[1,-1,3,5,7,9,11,-1,13,-1,-1,-1,-1,-1,-1],"loss_changes":[1.1448889E0,0E0,2.5269675E-1,1.21575475E-1,2.6163092E-1,1.9440903E-1,9.823209E-2,0E0,8.360439E-2,0E0,0E0,0E0,0E0,0E0,0E0],"parents":[2147483647,0,0,2,2,3,3,4,4,5,5,6,6,8,8],"right_children":[2,-1,4,6,8,10,12,-1,14,-1,-1,-1,-1,-1,-1],"split_conditions":[-1.8180056E-1,-1.17957935E-1,-5.635404E-1,-4.1624728E-1,-4.601637E-1,-9.8244205E-2,-4.6016315E-1,-7.483522E-2,-8.979568E-2,-3.7515722E-2,8.358597E-2,1.3813782E-1,1.7382083E-2,-9.186442E-3,8.4210984E-2],"split_indices":[10,0,27,4,1,34,1,0,11,0,0,0,0,0,0],"split_type":[0,0,0,0,0,0,0,0,0,0,0,0,0,0,0],"sum_hessian":[1.4795034E1,3.279648E0,1.1515387E1,7.567621E0,3.9477649E0,2.9599E0,4.6077213E0,1.4829682E0,2.4647968E0,1.4638947E0,1.4960052E0,3.5409644E0,1.0667568E0,1.0685344E0,1.3962624E0],"tree_param":{"num_deleted":"0","num_feature":"37","num_nodes":"15","size_leaf_vector":"1"}},{"base_weights":[1.129573E-2,2.7339518E-1,-2.2000174E-1,1.2048874E-1,-1.602878E-2,2.5375135E-2,-1.1287989E-1,-2.756959E-2,3.8591854E-2],"categories":[],"categories_nodes":[],"categories_segments":[],"categories_sizes":[],"default_left":[0,0,0,0,0,0,0,0,0],"id":72,"left_children":[1,3,5,-1,-1,7,-1,-1,-1],"loss_changes":[7.1180755E-1,2.5133747E-1,2.4974576E-1,0E0,0E0,5.2682288E-2,0E0,0E0,0E0],"parents":[2147483647,0,0,1,1,2,2,5,5],"right_children":[2,4,6,-1,-1,8,-1,-1,-1],"split_conditions":[-4.6187696E-1,-1.2654592E-1,-1.3054675E-1,1.2048874E-1,-1.602878E-2,-4.6016145E-1,-1.1287989E-1,-2.756959E-2,3.8591854E-2],"split_indices":[14,33,34,0,0,1,0,0,0],"split_type":[0,0,0,0,0,0,0,0,0],"sum_hessian":[9.749398E0,4.4850574E0,5.264341E0,3.0567982E0,1.4282593E0,2.3740559E0,2.890285E0,1.16316E0,1.2108959E0],"tree_param":{"num_deleted":"0","num_feature":"37","num_nodes":"9","size_leaf_vector":"1"}},{"base_weights":[-5.1797558E-2,2.5348347E-1,-1.1799129E-1,1.1881092E-1,-4.8259765E-2],"categories":[],"categories_nodes":[],"categories_segments":[],"categories_sizes":[],"default_left":[0,0,0,0,0],"id":73,"left_children":[1,3,-1,-1,-1],"loss_changes":[9.979803E-1,3.6834335E-1,0E0,0E0,0E0],"parents":[2147483647,0,0,1,1],"right_children":[2,4,-1,-1,-1],"split_conditions":[-5.2330464E-1,-2.8707385E-1,-1.1799129E-1,1.1881092E-1,-4.8259765E-2],"split_indices":[0,1,0,0,0],"split_type":[0,0,0,0,0],"sum_hessian":[7.616178E0,4.157468E0,3.45871E0,3.1261446E0,1.0313231E0],"tree_param":{"num_deleted":"0","num_feature":"37","num_nodes":"5","size_leaf_vector":"1"}},{"base_weights":[-3.8202304E-2,-1.2160202E-1,1.2011137E-1],"categories":[],"categories_nodes":[],"categories_segments":[],"categories_sizes":[],"default_left":[0,0,0],"id":74,"left_children":[1,-1,-1],"loss_changes":[1.497359E0,0E0,0E0],"parents":[2147483647,0,0],"right_children":[2,-1,-1],"split_conditions":[2.1964848E0,-1.2160202E-1,1.2011137E-1],"split_indices":[1,0,0],"split_type":[0,0,0],"sum_hessian":[7.2915063E0,4.0102396E0,3.281267E0],"tree_param":{"num_deleted":"0","num_feature":"37","num_nodes":"3","size_leaf_vector":"1"}},{"base_weights":[-3.6052648E-2,1.0998268E-1,-1.12941936E-1],"categories":[],"categories_nodes":[],"categories_segments":[],"categories_sizes":[],"default_left":[0,0,0],"id":75,"left_children":[1,-1,-1],"loss_changes":[1.3458414E0,0E0,0E0],"parents":[2147483647,0,0],"right_children":[2,-1,-1],"split_conditions":[-6.222974E-1,1.0998268E-1,-1.12941936E-1],"split_indices":[22,0,0],"split_type":[0,0,0],"sum_hessian":[7.8114514E0,3.543336E0,4.268115E0],"tree_param":{"num_deleted":"0","num_feature":"37","num_nodes":"3","size_leaf_vector":"1"}},{"base_weights":[1.2675448E-2,-1.12944014E-1,1.6531591E-1,-6.345587E-2,2.570047E-1,1.1243126E-1,4.9963836E-2,-4.692951E-2,7.6802194E-2],"categories":[],"categories_nodes":[],"categories_segments":[],"categories_sizes":[],"default_left":[0,0,0,0,0,0,0,0,0],"id":76,"left_children":[1,-1,3,-1,5,-1,7,-1,-1],"loss_changes":[8.1732506E-1,0E0,3.9384153E-1,0E0,1.8496531E-1,0E0,2.1792533E-1,0E0,0E0],"parents":[2147483647,0,0,2,2,4,4,6,6],"right_children":[2,-1,4,-1,6,-1,8,-1,-1],"split_conditions":[-2.507503E-1,-1.12944014E-1,-1.2299342E-1,-6.345587E-2,-4.4619992E-1,1.1243126E-1,-5.990247E-1,-4.692951E-2,7.6802194E-2],"split_indices":[11,0,34,0,22,0,32,0,0],"split_type":[0,0,0,0,0,0,0,0,0],"sum_hessian":[1.1711714E1,2.8864038E0,8.82531E0,1.4713243E0,7.353986E0,4.171232E0,3.1827533E0,1.710307E0,1.4724463E0],"tree_param":{"num_deleted":"0","num_feature":"37","num_nodes":"9","size_leaf_vector":"1"}},{"base_weights":[5.76727E-2,-1.1171864E-1,1.9372849E-1,3.48383E-1,6.1943393E-2,1.1922912E-1,2.8423686E-2,-6.4832695E-2,1.5304908E-1,2.9727018E-1,-3.895995E-2,1.7382737E-2,1.10400334E-1,2.7841004E-2,-4.9773853E-2],"categories":[],"categories_nodes":[],"categories_segments":[],"categories_sizes":[],"default_left":[0,0,0,0,0,0,0,0,0,0,0,0,0,0,0],"id":77,"left_children":[1,-1,3,5,7,-1,-1,-1,9,11,13,-1,-1,-1,-1],"loss_changes":[8.819546E-1,0E0,2.0610788E-1,2.3595035E-2,2.1668176E-1,0E0,0E0,0E0,1.7896792E-1,3.907141E-2,7.355762E-2,0E0,0E0,0E0,0E0],"parents":[2147483647,0,0,2,2,3,3,4,4,8,8,9,9,10,10],"right_children":[2,-1,4,6,8,-1,-1,-1,10,12,14,-1,-1,-1,-1],"split_conditions":[-1.8180056E-1,-1.1171864E-1,-2.317257E-1,-3.181587E-1,-4.2127237E-1,1.1922912E-1,2.8423686E-2,-6.4832695E-2,-4.3529857E-2,-3.7947364E-2,-5.635404E-1,1.7382737E-2,1.10400334E-1,2.7841004E-2,-4.9773853E-2],"split_indices":[10,0,24,2,4,0,0,0,11,24,27,0,0,0,0],"split_type":[0,0,0,0,0,0,0,0,0,0,0,0,0,0,0],"sum_hessian":[1.2839784E1,2.668298E0,1.0171486E1,3.9235232E0,6.247963E0,2.8126926E0,1.1108305E0,1.2033373E0,5.0446258E0,2.5677428E0,2.4768827E0,1.0007534E0,1.5669895E0,1.3474108E0,1.129472E0],"tree_param":{"num_deleted":"0","num_feature":"37","num_nodes":"15","size_leaf_vector":"1"}},{"base_weights":[1.1070871E-2,2.7656192E-1,-1.9094226E-1,1.1526074E-1,-1.0879597E-2,2.197592E-2,-1.0901084E-1,-8.6323656E-2,9.815131E-2],"categories":[],"categories_nodes":[],"categories_segments":[],"categories_sizes":[],"default_left":[0,0,0,0,0,0,0,0,0],"id":78,"left_children":[1,3,5,-1,-1,7,-1,-1,-1],"loss_changes":[5.6011486E-1,1.6531727E-1,2.2691174E-1,0E0,0E0,4.354993E-1,0E0,0E0,0E0],"parents":[2147483647,0,0,1,1,2,2,5,5],"right_children":[2,4,6,-1,-1,8,-1,-1,-1],"split_conditions":[-4.6016538E-1,-1.2654592E-1,-4.1554612E-1,1.1526074E-1,-1.0879597E-2,-5.221994E-1,-1.0901084E-1,-8.6323656E-2,9.815131E-2],"split_indices":[1,33,11,0,0,0,0,0,0],"split_type":[0,0,0,0,0,0,0,0,0],"sum_hessian":[8.458926E0,3.4957235E0,4.9632025E0,2.4310598E0,1.0646636E0,2.611274E0,2.3519285E0,1.3244035E0,1.2868705E0],"tree_param":{"num_deleted":"0","num_feature":"37","num_nodes":"9","size_leaf_vector":"1"}},{"base_weights":[-5.295082E-2,2.3806831E-1,-1.1258522E-1,1.1001186E-1,-2.768113E-2],"categories":[],"categories_nodes":[],"categories_segments":[],"categories_sizes":[],"default_left":[0,0,0,0,0],"id":79,"left_children":[1,3,-1,-1,-1],"loss_changes":[7.778492E-1,2.2374615E-1,0E0,0E0,0E0],"parents":[2147483647,0,0,1,1],"right_children":[2,4,-1,-1,-1],"split_conditions":[-5.2330464E-1,2.4819662E-1,-1.1258522E-1,1.1001186E-1,-2.768113E-2],"split_indices":[0,12,0,0,0],"split_type":[0,0,0,0,0],"sum_hessian":[6.3397465E0,3.4690924E0,2.8706543E0,2.4175699E0,1.0515224E0],"tree_param":{"num_deleted":"0","num_feature":"37","num_nodes":"5","size_leaf_vector":"1"}},{"base_weights":[-3.95039E-2,-1.16378E-1,1.13265745E-1],"categories":[],"categories_nodes":[],"categories_segments":[],"categories_sizes":[],"default_left":[0,0,0],"id":80,"left_children":[1,-1,-1],"loss_changes":[1.1619264E0,0E0,0E0],"parents":[2147483647,0,0],"right_children":[2,-1,-1],"split_conditions":[2.1964848E0,-1.16378E-1,1.13265745E-1],"split_indices":[1,0,0],"split_type":[0,0,0],"sum_hessian":[5.988165E0,3.3005888E0,2.6875758E0],"tree_param":{"num_deleted":"0","num_feature":"37","num_nodes":"3","size_leaf_vector":"1"}},{"base_weights":[-3.4363855E-2,-1.16329886E-1,3.2367486E-1,2.9582819E-2,1.0865684E-1],"categories":[],"categories_nodes":[],"categories_segments":[],"categories_sizes":[],"default_left":[0,0,0,0,0],"id":81,"left_children":[1,-1,3,-1,-1],"loss_changes":[1.081199E0,0E0,1.5316606E-3,0E0,0E0],"parents":[2147483647,0,0,2,2],"right_children":[2,-1,4,-1,-1],"split_conditions":[1.6236883E0,-1.16329886E-1,-5.228497E-1,2.9582819E-2,1.0865684E-1],"split_indices":[19,0,0,0,0],"split_type":[0,0,0,0,0],"sum_hessian":[6.552958E0,3.2560463E0,3.296912E0,1.0019847E0,2.2949274E0],"tree_param":{"num_deleted":"0","num_feature":"37","num_nodes":"5","size_leaf_vector":"1"}},{"base_weights":[1.1497002E-2,-1.07046165E-1,1.5094008E-1,-8.732881E-2,2.362713E-1,3.7058927E-2,-7.844724E-2,-1.1390172E-2,3.141313E-1,9.705689E-3,1.1184612E-1],"categories":[],"categories_nodes":[],"categories_segments":[],"categories_sizes":[],"default_left":[0,0,0,0,0,0,0,0,0,0,0],"id":82,"left_children":[1,-1,3,5,7,-1,-1,-1,9,-1,-1],"loss_changes":[6.315344E-1,0E0,2.008048E-1,1.4492832E-1,1.5700856E-1,0E0,0E0,0E0,7.724029E-2,0E0,0E0],"parents":[2147483647,0,0,2,2,3,3,4,4,8,8],"right_children":[2,-1,4,6,8,-1,-1,-1,10,-1,-1],"split_conditions":[-5.110053E-1,-1.07046165E-1,-2.317257E-1,-1.0804746E-1,-4.6187598E-1,3.7058927E-2,-7.844724E-2,-1.1390172E-2,-5.854692E-1,9.705689E-3,1.1184612E-1],"split_indices":[0,0,24,34,14,0,0,0,28,0,0],"split_type":[0,0,0,0,0,0,0,0,0,0,0],"sum_hessian":[1.0247731E1,2.3861594E0,7.8615723E0,2.0668724E0,5.7947E0,1.0664439E0,1.0004284E0,1.3946892E0,4.4000106E0,1.0258641E0,3.3741467E0],"tree_param":{"num_deleted":"0","num_feature":"37","num_nodes":"11","size_leaf_vector":"1"}},{"base_weights":[5.6092504E-2,-1.0534853E-1,1.794058E-1,3.1662744E-1,5.0958335E-2,2.2710342E-2,1.16529584E-1,7.803045E-2,-6.4621985E-2,-8.896819E-2,1.0058712E-1,7.1042106E-2,-3.3375625E-2],"categories":[],"categories_nodes":[],"categories_segments":[],"categories_sizes":[],"default_left":[0,0,0,0,0,0,0,0,0,0,0,0,0],"id":83,"left_children":[1,-1,3,5,7,-1,-1,-1,9,-1,11,-1,-1],"loss_changes":[6.8095994E-1,0E0,1.6200924E-1,5.1813424E-2,1.718099E-1,0E0,0E0,0E0,2.187737E-1,0E0,1.3099176E-1,0E0,0E0],"parents":[2147483647,0,0,2,2,3,3,4,4,8,8,10,10],"right_children":[2,-1,4,6,8,-1,-1,-1,10,-1,12,-1,-1],"split_conditions":[-1.8180056E-1,-1.0534853E-1,-5.783851E-1,-4.2127237E-1,-5.63853E-1,2.2710342E-2,1.16529584E-1,7.803045E-2,-4.601637E-1,-8.896819E-2,-6.0097474E-1,7.1042106E-2,-3.3375625E-2],"split_indices":[10,0,30,4,27,0,0,0,1,0,32,0,0],"split_type":[0,0,0,0,0,0,0,0,0,0,0,0,0],"sum_hessian":[1.1305081E1,2.198058E0,9.107023E0,3.6947992E0,5.4122243E0,1.3200135E0,2.3747857E0,1.4813385E0,3.9308858E0,1.3044683E0,2.6264174E0,1.526782E0,1.0996355E0],"tree_param":{"num_deleted":"0","num_feature":"37","num_nodes":"13","size_leaf_vector":"1"}},{"base_weights":[6.716534E-3,-2.3249754E-1,2.1177666E-1,2.3127278E-2,-1.0534042E-1,1.0793538E-1,-6.138203E-3],"categories":[],"categories_nodes":[],"categories_segments":[],"categories_sizes":[],"default_left":[0,0,0,0,0,0,0],"id":84,"left_children":[1,3,5,-1,-1,-1,-1],"loss_changes":[4.5127517E-1,1.8351945E-1,1.7703752E-1,0E0,0E0,0E0,0E0],"parents":[2147483647,0,0,1,1,2,2],"right_children":[2,4,6,-1,-1,-1,-1],"split_conditions":[1.1474792E0,-2.472866E-1,-4.6016538E-1,2.3127278E-2,-1.0534042E-1,1.0793538E-1,-6.138203E-3],"split_indices":[26,10,1,0,0,0,0],"split_type":[0,0,0,0,0,0,0],"sum_hessian":[7.1959395E0,3.259615E0,3.9363244E0,1.0000749E0,2.25954E0,2.0687025E0,1.867622E0],"tree_param":{"num_deleted":"0","num_feature":"37","num_nodes":"7","size_leaf_vector":"1"}},{"base_weights":[-5.1436465E-2,2.2309785E-1,-1.06867455E-1,1.0211355E-1,-1.8200425E-2],"categories":[],"categories_nodes":[],"categories_segments":[],"categories_sizes":[],"default_left":[0,0,0,0,0],"id":85,"left_children":[1,3,-1,-1,-1],"loss_changes":[6.1058676E-1,1.5225069E-1,0E0,0E0,0E0],"parents":[2147483647,0,0,1,1],"right_children":[2,4,-1,-1,-1],"split_conditions":[-5.2330464E-1,2.4782486E-1,-1.06867455E-1,1.0211355E-1,-1.8200425E-2],"split_indices":[0,12,0,0,0],"split_type":[0,0,0,0,0],"sum_hessian":[5.347352E0,2.9543142E0,2.3930378E0,1.9492028E0,1.0051115E0],"tree_param":{"num_deleted":"0","num_feature":"37","num_nodes":"5","size_leaf_vector":"1"}},{"base_weights":[-3.8273294E-2,-1.1083524E-1,1.0671378E-1],"categories":[],"categories_nodes":[],"categories_segments":[],"categories_sizes":[],"default_left":[0,0,0],"id":86,"left_children":[1,-1,-1],"loss_changes":[9.1032374E-1,0E0,0E0],"parents":[2147483647,0,0],"right_children":[2,-1,-1],"split_conditions":[2.1964848E0,-1.1083524E-1,1.0671378E-1],"split_indices":[1,0,0],"split_type":[0,0,0],"sum_hessian":[4.969573E0,2.7338345E0,2.2357383E0],"tree_param":{"num_deleted":"0","num_feature":"37","num_nodes":"3","size_leaf_vector":"1"}},{"base_weights":[-3.093426E-2,9.230352E-2,-1.1068188E-1],"categories":[],"categories_nodes":[],"categories_segments":[],"categories_sizes":[],"default_left":[0,0,0],"id":87,"left_children":[1,-1,-1],"loss_changes":[8.597992E-1,0E0,0E0],"parents":[2147483647,0,0],"right_children":[2,-1,-1],"split_conditions":[-5.876248E-1,9.230352E-2,-1.1068188E-1],"split_indices":[28,0,0],"split_type":[0,0,0],"sum_hessian":[5.520451E0,2.8025694E0,2.7178817E0],"tree_param":{"num_deleted":"0","num_feature":"37","num_nodes":"3","size_leaf_vector":"1"}},{"base_weights":[1.098766E-2,-1.015537E-1,1.4137371E-1,2.3258883E-1,-5.3461082E-2,2.5172496E-2,1.0324227E-1,-8.012352E-2,7.7618316E-2],"categories":[],"categories_nodes":[],"categories_segments":[],"categories_sizes":[],"default_left":[0,0,0,0,0,0,0,0,0],"id":88,"left_children":[1,-1,3,5,-1,7,-1,-1,-1],"loss_changes":[5.0607246E-1,0E0,2.7548403E-1,1.4588973E-1,0E0,3.0219638E-1,0E0,0E0,0E0],"parents":[2147483647,0,0,2,2,3,3,5,5],"right_children":[2,-1,4,6,-1,8,-1,-1,-1],"split_conditions":[-2.507503E-1,-1.015537E-1,-1.3746597E-1,-1.6330619E-1,-5.3461082E-2,-6.030761E-1,1.0324227E-1,-8.012352E-2,7.7618316E-2],"split_indices":[11,0,10,10,0,8,0,0,0],"split_type":[0,0,0,0,0,0,0,0,0],"sum_hessian":[9.0552225E0,2.0266235E0,7.0285993E0,5.6796794E0,1.3489199E0,2.414987E0,3.264692E0,1.0089453E0,1.4060419E0],"tree_param":{"num_deleted":"0","num_feature":"37","num_nodes":"9","size_leaf_vector":"1"}},{"base_weights":[5.3856403E-2,-9.863985E-2,1.6584E-1,2.427137E-1,-2.999742E-2,9.179841E-3,3.2502216E-1,5.711727E-2,-6.311899E-2,1.7136393E-2,1.15069956E-1],"categories":[],"categories_nodes":[],"categories_segments":[],"categories_sizes":[],"default_left":[0,0,0,0,0,0,0,0,0,0,0],"id":89,"left_children":[1,-1,3,5,7,-1,9,-1,-1,-1,-1],"loss_changes":[5.248676E-1,0E0,1.4512071E-1,1.06766135E-1,1.7805459E-1,0E0,5.1996678E-2,0E0,0E0,0E0,0E0],"parents":[2147483647,0,0,2,2,3,3,4,4,6,6],"right_children":[2,-1,4,6,8,-1,10,-1,-1,-1,-1],"split_conditions":[-1.8180056E-1,-9.863985E-2,-6.030761E-1,-6.0379165E-1,-6.1582565E-1,9.179841E-3,1.0965272E0,5.711727E-2,-6.311899E-2,1.7136393E-2,1.15069956E-1],"split_indices":[10,0,8,32,5,0,0,0,0,0,0],"split_type":[0,0,0,0,0,0,0,0,0,0,0],"sum_hessian":[9.976114E0,1.820205E0,8.15591E0,5.684975E0,2.4709346E0,1.9727737E0,3.712201E0,1.0872668E0,1.3836678E0,1.0200613E0,2.6921399E0],"tree_param":{"num_deleted":"0","num_feature":"37","num_nodes":"11","size_leaf_vector":"1"}},{"base_weights":[8.127395E-3,2.3530105E-1,-1.8703733E-1,9.975811E-2,-2.3847083E-3,2.7152386E-3,-9.574712E-2],"categories":[],"categories_nodes":[],"categories_segments":[],"categories_sizes":[],"default_left":[0,0,0,0,0,0,0],"id":90,"left_children":[1,3,5,-1,-1,-1,-1],"loss_changes":[3.70458E-1,9.3586415E-2,1.1992808E-1,0E0,0E0,0E0,0E0],"parents":[2147483647,0,0,1,1,2,2],"right_children":[2,4,6,-1,-1,-1,-1],"split_conditions":[-4.6187696E-1,-1.3555239E-1,-1.3054675E-1,9.975811E-2,-2.3847083E-3,2.7152386E-3,-9.574712E-2],"split_indices":[14,33,34,0,0,0,0],"split_type":[0,0,0,0,0,0,0],"sum_hessian":[6.362997E0,2.84534E0,3.517657E0,1.7706157E0,1.0747242E0,1.7910018E0,1.7266554E0],"tree_param":{"num_deleted":"0","num_feature":"37","num_nodes":"7","size_leaf_vector":"1"}},{"base_weights":[-5.101314E-2,2.0767938E-1,-1.0116031E-1,9.289073E-2,-6.906601E-3],"categories":[],"categories_nodes":[],"categories_segments":[],"categories_sizes":[],"default_left":[0,0,0,0,0],"id":91,"left_children":[1,3,-1,-1,-1],"loss_changes":[4.810935E-1,9.027921E-2,0E0,0E0,0E0],"parents":[2147483647,0,0,1,1],"right_children":[2,4,-1,-1,-1],"split_conditions":[-5.2330464E-1,7.137073E-1,-1.0116031E-1,9.289073E-2,-6.906601E-3],"split_indices":[0,2,0,0,0],"split_type":[0,0,0,0,0],"sum_hessian":[4.552315E0,2.5350995E0,2.0172157E0,1.5208318E0,1.0142676E0],"tree_param":{"num_deleted":"0","num_feature":"37","num_nodes":"5","size_leaf_vector":"1"}},{"base_weights":[-3.3442695E-2,-1.0522779E-1,1.0096526E-1],"categories":[],"categories_nodes":[],"categories_segments":[],"categories_sizes":[],"default_left":[0,0,0],"id":92,"left_children":[1,-1,-1],"loss_changes":[7.288225E-1,0E0,0E0],"parents":[2147483647,0,0],"right_children":[2,-1,-1],"split_conditions":[2.1964848E0,-1.0522779E-1,1.0096526E-1],"split_indices":[1,0,0],"split_type":[0,0,0],"sum_hessian":[4.20228E0,2.290161E0,1.912119E0],"tree_param":{"num_deleted":"0","num_feature":"37","num_nodes":"3","size_leaf_vector":"1"}},{"base_weights":[-3.5792425E-2,-1.0595947E-1,8.6540796E-2],"categories":[],"categories_nodes":[],"categories_segments":[],"categories_sizes":[],"default_left":[0,0,0],"id":93,"left_children":[1,-1,-1],"loss_changes":[6.8660283E-1,0E0,0E0],"parents":[2147483647,0,0],"right_children":[2,-1,-1],"split_conditions":[1.6236883E0,-1.0595947E-1,8.6540796E-2],"split_indices":[19,0,0],"split_type":[0,0,0],"sum_hessian":[4.681126E0,2.3204753E0,2.3606508E0],"tree_param":{"num_deleted":"0","num_feature":"37","num_nodes":"3","size_leaf_vector":"1"}},{"base_weights":[1.1097058E-2,-9.557545E-2,1.3244246E-1,-5.287169E-2,2.1375947E-1,-6.7495177E-3,2.836099E-1,1.1059321E-1,6.6630407E-3],"categories":[],"categories_nodes":[],"categories_segments":[],"categories_sizes":[],"default_left":[0,0,0,0,0,0,0,0,0],"id":94,"left_children":[1,-1,3,-1,5,-1,7,-1,-1],"loss_changes":[4.0159804E-1,0E0,2.2023761E-1,0E0,1.0883933E-1,0E0,9.9958986E-2,0E0,0E0],"parents":[2147483647,0,0,2,2,4,4,6,6],"right_children":[2,-1,4,-1,6,-1,8,-1,-1],"split_conditions":[-2.507503E-1,-9.557545E-2,-1.2299342E-1,-5.287169E-2,-2.317257E-1,-6.7495177E-3,-4.4619992E-1,1.1059321E-1,6.6630407E-3],"split_indices":[11,0,34,0,24,0,22,0,0],"split_type":[0,0,0,0,0,0,0,0,0],"sum_hessian":[7.9838886E0,1.7106919E0,6.2731967E0,1.0646085E0,5.208588E0,1.3432311E0,3.8653572E0,2.6070178E0,1.2583394E0],"tree_param":{"num_deleted":"0","num_feature":"37","num_nodes":"9","size_leaf_vector":"1"}},{"base_weights":[5.0721098E-2,1.556546E-1,-9.241859E-2,2.4032128E-1,-5.353378E-2,5.6827478E-2,1.01060234E-1,4.3297246E-2,-6.325002E-2,7.29593E-2,-5.0566826E-2],"categories":[],"categories_nodes":[],"categories_segments":[],"categories_sizes":[],"default_left":[0,0,0,0,0,0,0,0,0,0,0],"id":95,"left_children":[1,3,-1,5,7,9,-1,-1,-1,-1,-1],"loss_changes":[4.198411E-1,1.599938E-1,0E0,8.884689E-2,1.30373E-1,1.7979687E-1,0E0,0E0,0E0,0E0,0E0],"parents":[2147483647,0,0,1,1,3,3,4,4,5,5],"right_children":[2,4,-1,6,8,10,-1,-1,-1,-1,-1],"split_conditions":[-3.2407403E-1,-5.990247E-1,-9.241859E-2,-6.905461E-1,-4.6016353E-1,-4.618755E-1,1.01060234E-1,4.3297246E-2,-6.325002E-2,7.29593E-2,-5.0566826E-2],"split_indices":[33,32,0,23,1,14,0,0,0,0,0],"split_type":[0,0,0,0,0,0,0,0,0,0,0],"sum_hessian":[8.877982E0,7.307046E0,1.5709366E0,5.095764E0,2.2112818E0,2.3044922E0,2.7912717E0,1.015913E0,1.1953686E0,1.2181568E0,1.0863355E0],"tree_param":{"num_deleted":"0","num_feature":"37","num_nodes":"11","size_leaf_vector":"1"}},{"base_weights":[5.597859E-3,2.3228021E-1,-1.6607724E-1,1.5998494E-2,8.77478E-2,8.597432E-3,-9.4283074E-2],"categories":[],"categories_nodes":[],"categories_segments":[],"categories_sizes":[],"default_left":[0,0,0,0,0,0,0],"id":96,"left_children":[1,3,5,-1,-1,-1,-1],"loss_changes":[2.9735902E-1,1.977335E-2,1.3504061E-1,0E0,0E0,0E0,0E0],"parents":[2147483647,0,0,1,1,2,2],"right_children":[2,4,6,-1,-1,-1,-1],"split_conditions":[-4.6016538E-1,-8.353017E-2,-4.1554612E-1,1.5998494E-2,8.77478E-2,8.597432E-3,-9.4283074E-2],"split_indices":[1,10,11,0,0,0,0],"split_type":[0,0,0,0,0,0,0],"sum_hessian":[5.6498213E0,2.282695E0,3.3671265E0,1.049435E0,1.23326E0,1.8036902E0,1.5634362E0],"tree_param":{"num_deleted":"0","num_feature":"37","num_nodes":"7","size_leaf_vector":"1"}},{"base_weights":[-4.443265E-2,1.9788028E-1,-9.553669E-2,2.7337715E-3,8.435911E-2],"categories":[],"categories_nodes":[],"categories_segments":[],"categories_sizes":[],"default_left":[0,0,0,0,0],"id":97,"left_children":[1,3,-1,-1,-1],"loss_changes":[3.9332572E-1,4.8659116E-2,0E0,0E0,0E0],"parents":[2147483647,0,0,1,1],"right_children":[2,4,-1,-1,-1],"split_conditions":[-5.2330464E-1,-4.8190945E-1,-9.553669E-2,2.7337715E-3,8.435911E-2],"split_indices":[0,11,0,0,0],"split_type":[0,0,0,0,0],"sum_hessian":[3.9745948E0,2.2568116E0,1.7177832E0,1.030781E0,1.2260307E0],"tree_param":{"num_deleted":"0","num_feature":"37","num_nodes":"5","size_leaf_vector":"1"}},{"base_weights":[-3.195246E-2,-9.9660404E-2,9.487222E-2],"categories":[],"categories_nodes":[],"categories_segments":[],"categories_sizes":[],"default_left":[0,0,0],"id":98,"left_children":[1,-1,-1],"loss_changes":[5.825258E-1,0E0,0E0],"parents":[2147483647,0,0],"right_children":[2,-1,-1],"split_conditions":[2.1964848E0,-9.9660404E-2,9.487222E-2],"split_indices":[1,0,0],"split_type":[0,0,0],"sum_hessian":[3.5671432E0,1.9401066E0,1.6270365E0],"tree_param":{"num_deleted":"0","num_feature":"37","num_nodes":"3","size_leaf_vector":"1"}},{"base_weights":[-3.4709882E-2,-1.0027579E-1,7.972861E-2],"categories":[],"categories_nodes":[],"categories_segments":[],"categories_sizes":[],"default_left":[0,0,0],"id":99,"left_children":[1,-1,-1],"loss_changes":[5.415673E-1,0E0,0E0],"parents":[2147483647,0,0],"right_children":[2,-1,-1],"split_conditions":[1.6236883E0,-1.0027579E-1,7.972861E-2],"split_indices":[19,0,0],"split_type":[0,0,0],"sum_hessian":[4.0301623E0,1.9619018E0,2.0682604E0],"tree_param":{"num_deleted":"0","num_feature":"37","num_nodes":"3","size_leaf_vector":"1"}},{"base_weights":[1.0142284E-2,-8.971008E-2,1.2252647E-1,2.0697494E-1,-4.6692297E-2,6.118956E-3,9.071506E-2],"categories":[],"categories_nodes":[],"categories_segments":[],"categories_sizes":[],"default_left":[0,0,0,0,0,0,0],"id":100,"left_children":[1,-1,3,5,-1,-1,-1],"loss_changes":[3.1897035E-1,0E0,1.8886533E-1,9.253654E-2,0E0,0E0,0E0],"parents":[2147483647,0,0,2,2,3,3],"right_children":[2,-1,4,6,-1,-1,-1],"split_conditions":[-2.507503E-1,-8.971008E-2,-1.3746597E-1,-1.6330619E-1,-4.6692297E-2,6.118956E-3,9.071506E-2],"split_indices":[11,0,10,10,0,0,0],"split_type":[0,0,0,0,0,0,0],"sum_hessian":[7.1254516E0,1.4568237E0,5.668628E0,4.5448093E0,1.1238184E0,1.9483838E0,2.5964258E0],"tree_param":{"num_deleted":"0","num_feature":"37","num_nodes":"7","size_leaf_vector":"1"}},{"base_weights":[4.7081985E-2,-8.743964E-2,1.4479244E-1,2.1768504E-1,-3.557854E-2,8.475752E-3,2.9020977E-1,3.6061205E-2,-5.1835988E-2,9.989062E-2,2.5188353E-2],"categories":[],"categories_nodes":[],"categories_segments":[],"categories_sizes":[],"default_left":[0,0,0,0,0,0,0,0,0,0,0],"id":101,"left_children":[1,-1,3,5,7,-1,9,-1,-1,-1,-1],"loss_changes":[3.3864725E-1,0E0,1.079635E-1,6.8312585E-2,8.603448E-2,0E0,6.6088736E-3,0E0,0E0,0E0,0E0],"parents":[2147483647,0,0,2,2,3,3,4,4,6,6],"right_children":[2,-1,4,6,8,-1,10,-1,-1,-1,-1],"split_conditions":[-1.8180056E-1,-8.743964E-2,-6.030761E-1,-6.0379165E-1,-6.1563325E-1,8.475752E-3,-5.9913194E-1,3.6061205E-2,-5.1835988E-2,9.989062E-2,2.5188353E-2],"split_indices":[10,0,8,32,5,0,32,0,0,0,0],"split_type":[0,0,0,0,0,0,0,0,0,0,0],"sum_hessian":[7.961566E0,1.3390548E0,6.6225114E0,4.569132E0,2.053379E0,1.6497049E0,2.9194272E0,1.0196376E0,1.0337415E0,1.9092097E0,1.0102174E0],"tree_param":{"num_deleted":"0","num_feature":"37","num_nodes":"11","size_leaf_vector":"1"}},{"base_weights":[2.380189E-3,2.0595476E-1,-1.6890693E-1,8.399784E-2,7.7667586E-3,-4.7985974E-4,-8.501078E-2],"categories":[],"categories_nodes":[],"categories_segments":[],"categories_sizes":[],"default_left":[0,0,0,0,0,0,0],"id":102,"left_children":[1,3,5,-1,-1,-1,-1],"loss_changes":[2.4779215E-1,3.5970062E-2,7.359721E-2,0E0,0E0,0E0,0E0],"parents":[2147483647,0,0,1,1,2,2],"right_children":[2,4,6,-1,-1,-1,-1],"split_conditions":[-4.6187696E-1,-5.505878E-1,-1.3054675E-1,8.399784E-2,7.7667586E-3,-4.7985974E-4,-8.501078E-2],"split_indices":[14,25,34,0,0,0,0],"split_type":[0,0,0,0,0,0,0],"sum_hessian":[5.1085973E0,2.2418115E0,2.8667855E0,1.1953622E0,1.0464492E0,1.5764675E0,1.290318E0],"tree_param":{"num_deleted":"0","num_feature":"37","num_nodes":"7","size_leaf_vector":"1"}},{"base_weights":[-3.6325786E-2,1.9110061E-1,-9.0333596E-2,7.821673E-2,7.465579E-3],"categories":[],"categories_nodes":[],"categories_segments":[],"categories_sizes":[],"default_left":[0,0,0,0,0],"id":103,"left_children":[1,3,-1,-1,-1],"loss_changes":[3.3128974E-1,2.889026E-2,0E0,0E0,0E0],"parents":[2147483647,0,0,1,1],"right_children":[2,4,-1,-1,-1],"split_conditions":[-5.2330464E-1,6.404961E-2,-9.0333596E-2,7.821673E-2,7.465579E-3],"split_indices":[0,12,0,0,0],"split_type":[0,0,0,0,0],"sum_hessian":[3.545831E0,2.0571856E0,1.4886453E0,1.0491507E0,1.008035E0],"tree_param":{"num_deleted":"0","num_feature":"37","num_nodes":"5","size_leaf_vector":"1"}},{"base_weights":[-2.8048562E-2,-9.441205E-2,8.977916E-2],"categories":[],"categories_nodes":[],"categories_segments":[],"categories_sizes":[],"default_left":[0,0,0],"id":104,"left_children":[1,-1,-1],"loss_changes":[4.7854537E-1,0E0,0E0],"parents":[2147483647,0,0],"right_children":[2,-1,-1],"split_conditions":[2.1964848E0,-9.441205E-2,8.977916E-2],"split_indices":[1,0,0],"split_type":[0,0,0],"sum_hessian":[3.0965366E0,1.6713184E0,1.4252182E0],"tree_param":{"num_deleted":"0","num_feature":"37","num_nodes":"3","size_leaf_vector":"1"}},{"base_weights":[-3.4861922E-2,8.2583584E-2,-8.934333E-2],"categories":[],"categories_nodes":[],"categories_segments":[],"categories_sizes":[],"default_left":[0,0,0],"id":105,"left_children":[1,-1,-1],"loss_changes":[4.5248422E-1,0E0,0E0],"parents":[2147483647,0,0],"right_children":[2,-1,-1],"split_conditions":[-6.222974E-1,8.2583584E-2,-8.934333E-2],"split_indices":[22,0,0],"split_type":[0,0,0],"sum_hessian":[3.543198E0,1.6042018E0,1.9389962E0],"tree_param":{"num_deleted":"0","num_feature":"37","num_nodes":"3","size_leaf_vector":"1"}},{"base_weights":[9.150923E-3,-8.470367E-2,1.1410079E-1,2.1421723E-1,-6.4200476E-2,6.054715E-3,9.1163926E-2,-3.394637E-2,4.970137E-3],"categories":[],"categories_nodes":[],"categories_segments":[],"categories_sizes":[],"default_left":[0,0,0,0,0,0,0,0,0],"id":106,"left_children":[1,-1,3,5,7,-1,-1,-1,-1],"loss_changes":[2.6162544E-1,0E0,1.2489101E-1,6.724548E-2,1.3768745E-2,0E0,0E0,0E0,0E0],"parents":[2147483647,0,0,2,2,3,3,4,4],"right_children":[2,-1,4,6,8,-1,-1,-1,-1],"split_conditions":[-5.110053E-1,-8.470367E-2,-5.832146E-1,-6.021989E-1,1.6440158E0,6.054715E-3,9.1163926E-2,-3.394637E-2,4.970137E-3],"split_indices":[0,0,28,32,25,0,0,0,0],"split_type":[0,0,0,0,0,0,0,0,0],"sum_hessian":[6.498879E0,1.2729611E0,5.225918E0,3.2177258E0,2.008192E0,1.4041522E0,1.8135735E0,1.00068E0,1.007512E0],"tree_param":{"num_deleted":"0","num_feature":"37","num_nodes":"9","size_leaf_vector":"1"}},{"base_weights":[4.294093E-2,-8.220456E-2,1.3358007E-1,2.0499916E-1,-1.1351625E-2,7.485308E-3,8.223271E-2],"categories":[],"categories_nodes":[],"categories_segments":[],"categories_sizes":[],"default_left":[0,0,0,0,0,0,0],"id":107,"left_children":[1,-1,3,5,-1,-1,-1],"loss_changes":[2.7427766E-1,0E0,9.4748184E-2,5.7512373E-2,0E0,0E0,0E0],"parents":[2147483647,0,0,2,2,3,3],"right_children":[2,-1,4,6,-1,-1,-1],"split_conditions":[-1.8180056E-1,-8.220456E-2,-6.030761E-1,-6.0379165E-1,-1.1351625E-2,7.485308E-3,8.223271E-2],"split_indices":[10,0,8,32,0,0,0],"split_type":[0,0,0,0,0,0,0],"sum_hessian":[7.2730947E0,1.1674596E0,6.1056347E0,4.171673E0,1.9339619E0,1.5346274E0,2.6370454E0],"tree_param":{"num_deleted":"0","num_feature":"37","num_nodes":"7","size_leaf_vector":"1"}},{"base_weights":[-2.659037E-4,6.203834E-2,-1.5657294E-1,6.7907786E-3,-8.632801E-2],"categories":[],"categories_nodes":[],"categories_segments":[],"categories_sizes":[],"default_left":[0,0,0,0,0],"id":108,"left_children":[1,-1,3,-1,-1],"loss_changes":[2.1594141E-1,0E0,9.5875405E-2,0E0,0E0],"parents":[2147483647,0,0,2,2],"right_children":[2,-1,4,-1,-1],"split_conditions":[-4.6016538E-1,6.203834E-2,-4.1554612E-1,6.7907786E-3,-8.632801E-2],"split_indices":[1,0,11,0,0],"split_type":[0,0,0,0,0],"sum_hessian":[4.671653E0,1.8706268E0,2.801026E0,1.533556E0,1.26747E0],"tree_param":{"num_deleted":"0","num_feature":"37","num_nodes":"5","size_leaf_vector":"1"}},{"base_weights":[-3.5338964E-2,5.3752936E-2,-8.5425876E-2],"categories":[],"categories_nodes":[],"categories_segments":[],"categories_sizes":[],"default_left":[0,0,0],"id":109,"left_children":[1,-1,-1],"loss_changes":[2.7296466E-1,0E0,0E0],"parents":[2147483647,0,0],"right_children":[2,-1,-1],"split_conditions":[-5.2330464E-1,5.3752936E-2,-8.5425876E-2],"split_indices":[0,0,0],"split_type":[0,0,0],"sum_hessian":[3.1482363E0,1.8439263E0,1.3043101E0],"tree_param":{"num_deleted":"0","num_feature":"37","num_nodes":"3","size_leaf_vector":"1"}},{"base_weights":[-2.7685724E-2,-8.941156E-2,8.435188E-2],"categories":[],"categories_nodes":[],"categories_segments":[],"categories_sizes":[],"default_left":[0,0,0],"id":110,"left_children":[1,-1,-1],"loss_changes":[3.9240047E-1,0E0,0E0],"parents":[2147483647,0,0],"right_children":[2,-1,-1],"split_conditions":[2.1964848E0,-8.941156E-2,8.435188E-2],"split_indices":[1,0,0],"split_type":[0,0,0],"sum_hessian":[2.6957746E0,1.4561753E0,1.2395992E0],"tree_param":{"num_deleted":"0","num_feature":"37","num_nodes":"3","size_leaf_vector":"1"}},{"base_weights":[-3.3430636E-2,7.218036E-2,-9.100807E-2],"categories":[],"categories_nodes":[],"categories_segments":[],"categories_sizes":[],"default_left":[0,0,0],"id":111,"left_children":[1,-1,-1],